tree
version=v4
num_class=1
num_tree_per_iteration=1
label_index=0
max_feature_idx=143
objective=regression
feature_names=Column_0 Column_1 Column_2 Column_3 Column_4 Column_5 Column_6 Column_7 Column_8 Column_9 Column_10 Column_11 Column_12 Column_13 Column_14 Column_15 Column_16 Column_17 Column_18 Column_19 Column_20 Column_21 Column_22 Column_23 Column_24 Column_25 Column_26 Column_27 Column_28 Column_29 Column_30 Column_31 Column_32 Column_33 Column_34 Column_35 Column_36 Column_37 Column_38 Column_39 Column_40 Column_41 Column_42 Column_43 Column_44 Column_45 Column_46 Column_47 Column_48 Column_49 Column_50 Column_51 Column_52 Column_53 Column_54 Column_55 Column_56 Column_57 Column_58 Column_59 Column_60 Column_61 Column_62 Column_63 Column_64 Column_65 Column_66 Column_67 Column_68 Column_69 Column_70 Column_71 Column_72 Column_73 Column_74 Column_75 Column_76 Column_77 Column_78 Column_79 Column_80 Column_81 Column_82 Column_83 Column_84 Column_85 Column_86 Column_87 Column_88 Column_89 Column_90 Column_91 Column_92 Column_93 Column_94 Column_95 Column_96 Column_97 Column_98 Column_99 Column_100 Column_101 Column_102 Column_103 Column_104 Column_105 Column_106 Column_107 Column_108 Column_109 Column_110 Column_111 Column_112 Column_113 Column_114 Column_115 Column_116 Column_117 Column_118 Column_119 Column_120 Column_121 Column_122 Column_123 Column_124 Column_125 Column_126 Column_127 Column_128 Column_129 Column_130 Column_131 Column_132 Column_133 Column_134 Column_135 Column_136 Column_137 Column_138 Column_139 Column_140 Column_141 Column_142 Column_143
feature_infos=[0:4] [0:274.12344360351562] [0:3] [0:45] [0:102] [0:10.588234901428223] [0:48] [0:29.913793563842773] [0:14] [0:213.142333984375] [0:0.22928051650524139] [0:17.8125] [0:11] [0:9] [0:23.452381134033203] [0:12] [0.0002108029875671491:349.082275390625] [0.00018218549666926265:290.91326904296875] [0:23.235164642333984] [0:5] [0:40] [0:61.668571472167969] [0:96] [0:81] [0:31] [0:45] [0:4] [0:4] [0:0.24347318708896637] [0:0.096711263060569763] [0:0.031746033579111099] [0:0.22458072006702423] [0:0.10753176361322403] [0:0.096711263060569763] [0:0.10068965703248978] [0:0.53839403390884399] [0:7] [13.052846908569336:523.66668701171875] [0:5] [6:82] [100:304] [2.5555555820465088:23.333333969116211] [20:112] [11.06768798828125:66.724998474121094] [2:27] [0.75567090511322021:367.83956909179688] [0.38083735108375549:0.81724345684051514] [0.1875:33.494373321533203] [8:29] [6:23] [10:56.034481048583984] [3:28] [12.122748374938965:644.392333984375] [15.164962768554688:549.93218994140625] [10.842867851257324:56.902923583984375] [2:11] [17:94] [36.962566375732422:161.74000549316406] [40:232] [21:173] [6:61.5] [6:82] [0:6] [0:6] [0.30090498924255371:0.76069182157516479] [0.039276089519262314:0.22986607253551483] [0:0.057720057666301727] [0.30600357055664062:0.71254181861877441] [0.03084004670381546:0.23973727226257324] [0.039276089519262314:0.22986607253551483] [0.03084004670381546:0.23973727226257324] [0.088461540639400482:1.1418676376342773] [0:3] [6.3765430450439453:243.16667175292969] [0:2] [3:35] [50:152] [1.2222222089767456:11.333333015441895] [10:54] [4.1724138259887695:32.224998474121094] [1:13] [0.36678200960159302:154.28402709960938] [0.1805555522441864:0.40740740299224854] [0:15.734375] [4:14] [3:11] [5:27.034482955932617] [1:14] [5.5363321304321289:288.7236328125] [6.7706756591796875:252.24826049804688] [4.7450981140136719:28.109588623046875] [1:5] [8:46] [17.727272033691406:80] [20:116] [10:81] [3:27.5] [3:34] [0:2] [0:2] [0.13986013829708099:0.37735849618911743] [0.018867924809455872:0.1139240488409996] [0:0.025974025949835777] [0.14685314893722534:0.35384616255760193] [0.012658228166401386:0.1190476194024086] [0.018867924809455872:0.1139240488409996] [0.012658228166401386:0.1190476194024086] [0.038461539894342422:0.55696201324462891] [0:4] [6.6763038635253906:280.5] [0:3] [3:48] [50:152] [1.3333333730697632:12] [10:58] [6.4814815521240234:34.5] [1:15] [0.3888888955116272:213.55555725097656] [0.19565217196941376:0.4098360538482666] [0.1875:18] [4:15] [3:12] [5:29] [2:14] [6.5864157676696777:355.66867065429688] [8.394287109375:297.6839599609375] [5.9130434989929199:28.793333053588867] [1:6] [9:48] [19.235294342041016:81.739997863769531] [20:116] [11:92] [3:34] [3:48] [0:4] [0:4] [0.15322580933570862:0.38461539149284363] [0.020408162847161293:0.11594203114509583] [0:0.031746033579111099] [0.15322580933570862:0.37735849618911743] [0.018181817606091499:0.12068965286016464] [0.020408162847161293:0.11594203114509583] [0.018181817606091499:0.12068965286016464] [0.05000000074505806:0.58490568399429321]
tree_sizes=22098 22428 22443 22420 22523 22512 22587 22594 22583 22651 22667 22681 22724 22701 22790 22799 22807 22758 22770 22839 22909 22844 22917 22903 22905 22920 22866 22882 22930 22890 22921 22927 23017 22915 22932 22882 22920 22973 22875 22903 22898 22989 22956 22952 22965 22940 22974 22979 22922 22955 22916 22994 22889 22930 22906 22977 22939 22874 22764 22903 22915 22905 22862 22824 22799 22942 23050 22921 22749 22934 22964 22968 22871 22808 22811 22896 22917 22857 22900 22885 22826 22870 22848 22864 22962 22547 22826 22900 22755 22978 22667 22863 22780 22801 22899 22877 22754 22796 22765 22808

Tree=0
num_leaves=250
num_cat=0
split_feature=112 112 112 36 127 55 17 127 112 17 89 40 17 55 19 112 55 17 17 17 129 73 17 88 17 4 19 112 38 131 89 89 89 73 21 131 17 40 17 40 76 19 131 127 19 112 19 22 19 18 66 40 127 6 112 112 125 89 17 127 112 40 112 127 90 73 19 131 117 109 6 125 89 89 122 89 76 89 76 73 131 21 117 131 92 131 131 86 124 112 14 109 112 19 131 88 4 124 131 131 79 88 76 76 131 112 86 40 131 4 131 21 73 17 4 122 112 131 73 76 124 4 3 89 73 91 89 17 55 21 94 30 88 40 76 18 125 3 17 131 122 76 10 1 94 21 122 16 91 40 124 73 1 89 128 113 73 40 91 101 111 117 112 143 131 89 89 131 94 4 112 19 59 112 131 21 122 6 1 78 78 19 94 131 122 17 112 94 21 111 18 112 21 21 4 113 7 17 21 17 112 1 94 6 14 40 117 89 76 128 19 90 112 22 95 19 131 21 10 89 112 18 94 90 140 20 55 79 30 19 17 40 21 2 40 79 89 40 23 89 58 131 112 17 125 112 17 128 31
split_gain=2.1788e+08 3.16272e+07 2.46348e+07 8.2546e+06 7.68018e+06 6.48876e+06 5.87232e+06 5.80508e+06 3.45348e+06 3.20986e+06 3.02745e+06 2.37374e+06 2.04305e+06 1.70273e+06 1.59766e+06 1.47334e+06 1.42642e+06 1.21606e+06 1.12269e+06 1.11737e+06 1.10639e+06 1.07389e+06 971740 892106 745804 704324 689184 681151 660064 640363 612762 564177 512654 510366 466036 462350 445870 431247 415715 407794 402425 393602 392606 387725 386314 362206 336754 308382 297067 288816 274678 272434 271701 266284 246732 239849 234477 232460 231989 228879 226082 223210 219866 219241 217377 213858 213542 209271 201565 194686 193871 192437 190829 189523 181988 172383 166242 161688 160770 160414 160189 157961 151058 150857 148600 143392 140416 139476 139464 138009 137862 136108 135452 134858 134578 134004 128615 128544 126348 125787 125651 123800 136596 122755 121557 120310 117294 115703 114292 112973 112700 109588 108757 107856 106165 105848 105795 104728 104682 103536 103495 103263 102483 96248.1 95829.1 90464 90183.5 90031.4 89208.1 88286 88249.4 86857.4 86725.6 89132.5 83973.9 83531 82593.8 81507.6 79344.1 77621.4 76767.9 75539.2 75259.7 75181.5 75060.1 74201.8 71192.6 71127.2 71124.4 71116.4 70575.2 70236.1 70070.4 69918.7 69611.9 68373.7 67939.3 67561.9 66987 66320.5 65500.7 65434.5 64660.3 64473.4 64460.1 64077.7 64055.6 63725.1 63401.3 69352.4 63279 62773 62159.3 61676.8 61445.1 60887.7 60738.6 59095.4 57261.6 57247 56955.8 56128 58466.4 55716.3 55364.6 54825.4 53303.7 52490.7 54563.8 52119.7 51972.8 51581.3 49896.5 47577.6 47542 47224.7 47099.5 46540.7 46483.8 55397.6 46236.2 46229.6 56128.5 46006.9 45737.6 45616.8 45118.5 44756.9 44680.5 44676.7 43999 43952.7 43945.4 43880.1 43810.1 43323 43044.8 43034.4 46931.2 42620.7 42357.5 42208.3 41189.9 41151.7 40368 40161.8 39912.3 39675.4 39671.9 39206.1 38921.4 38788.6 47401.1 38760.1 38543.8 38481.1 38424 37976.6 37852.6 37732.5 37497.3 37464.8 37391.9 37270 37268.9 37017.3 36993.4 36869 36623.3
threshold=119.50000000000001 90.500000000000014 136.50000000000003 1.0000000180025095e-35 3.5000000000000004 2.5000000000000004 73.622150421142592 2.5000000000000004 107.50000000000001 68.211227416992202 76.687194824218764 260.50000000000006 78.013149261474624 2.5000000000000004 1.5000000000000002 104.50000000000001 3.5000000000000004 52.743141174316413 40.370275497436531 30.314527511596683 40.694160461425788 39.976373672485359 39.943864822387702 43.153633117675788 115.0442581176758 59.500000000000007 2.5000000000000004 143.50000000000003 1.0000000180025095e-35 46.500000000000007 27.281184196472172 54.57677078247071 32.163124084472663 28.419272422790531 15.404829978942873 33.500000000000007 33.425376892089851 282.50000000000006 110.72237777709962 275.50000000000006 109.50000000000001 1.0000000180025095e-35 64.500000000000014 2.5000000000000004 1.5000000000000002 147.50000000000003 1.5000000000000002 25.000000000000004 1.5000000000000002 11.537571907043459 0.0097096534445881861 223.50000000000003 2.5000000000000004 5.5000000000000009 129.50000000000003 146.50000000000003 72.226963043212905 40.326318740844734 105.222713470459 2.5000000000000004 101.50000000000001 199.50000000000003 130.50000000000003 2.5000000000000004 11.108751296997072 28.809422492980961 1.5000000000000002 64.500000000000014 13.527643680572512 146.72613525390628 9.5000000000000018 37.094001770019538 44.265840530395515 31.301763534545902 18.111250877380375 89.972980499267592 109.50000000000001 46.877523422241218 106.50000000000001 20.846471786499027 40.500000000000007 36.720567703247077 18.832437515258793 33.500000000000007 23.500000000000004 22.500000000000004 33.500000000000007 9.0631957054138201 50.729413986206062 128.50000000000003 6.9797537326812753 39.783037185668952 148.50000000000003 2.5000000000000004 39.500000000000007 80.736328125000014 57.500000000000007 65.143516540527358 24.500000000000004 56.500000000000007 10.771241664886476 77.166309356689467 105.50000000000001 139.50000000000003 42.500000000000007 142.50000000000003 12.285361766815187 265.50000000000006 69.500000000000014 88.500000000000014 60.500000000000007 12.468745708465578 47.17467117309571 26.438743591308597 71.500000000000014 13.088744640350344 131.50000000000003 66.500000000000014 27.074186325073246 101.50000000000001 87.278705596923842 47.500000000000007 10.500000000000002 55.949802398681648 36.584445953369148 1.5000000000000002 37.094001770019538 152.83906555175784 6.5000000000000009 24.659253120422367 49.000000000000007 0.011241407599300148 116.13259124755861 271.50000000000006 130.50000000000003 10.664994239807131 48.121517181396491 11.500000000000002 17.405962944030765 50.500000000000007 13.254310131073 109.50000000000001 0.10553182289004327 43.966184616088874 53.000000000000007 17.802846908569339 12.005102157592775 87.777362823486342 1.5000000000000002 231.50000000000003 32.98979568481446 12.044007778167726 62.304109573364265 23.5194845199585 25.500000000000004 2.9045455455780034 17.310417175292972 247.50000000000003 1.5000000000000002 0.044859969988465316 23.500000000000004 8.2666664123535174 144.50000000000003 0.26339712738990789 29.500000000000004 51.927881240844734 44.483190536499031 27.500000000000004 59.000000000000007 92.500000000000014 146.50000000000003 1.5000000000000002 66.500000000000014 131.50000000000003 60.500000000000007 14.890608310699465 16.110710144042972 15.500000000000002 65.532440185546889 37.500000000000007 24.500000000000004 2.5000000000000004 77.000000000000014 67.500000000000014 15.561326503753664 52.188634872436531 140.50000000000003 53.000000000000007 26.285878181457523 19.500000000000004 4.9417543411254892 97.500000000000014 30.897446632385257 15.958429336547853 83.500000000000014 4.8944444656372079 9.1326489448547381 49.594938278198249 8.1705102920532244 90.501586914062514 148.50000000000003 15.029924392700197 51.000000000000007 8.5000000000000018 14.491351604461672 280.50000000000006 9.5908570289611834 51.927881240844734 79.500000000000014 19.500000000000004 2.5000000000000004 12.353039264678957 125.50000000000001 27.000000000000004 32.500000000000007 1.5000000000000002 67.500000000000014 15.958429336547853 0.058516282588243491 50.524780273437507 141.50000000000003 4.1581168174743661 43.000000000000007 16.307771682739261 0.074547473341226592 14.500000000000002 2.5000000000000004 16.532795906066898 0.0069067738950252542 3.5000000000000004 51.116838455200202 258.50000000000006 17.217519760131839 1.5000000000000002 251.50000000000003 10.747549057006838 23.5194845199585 237.50000000000003 31.500000000000004 113.35742950439455 143.00000000000003 53.500000000000007 146.50000000000003 14.433674335479738 91.973606109619155 78.500000000000014 60.778661727905281 35.500000000000007 0.050543537363410003
decision_type=2 2 2 2 2 2 2 2 2 2 2 2 2 2 2 2 2 2 2 2 2 2 2 2 2 2 2 2 2 2 2 2 2 2 2 2 2 2 2 2 2 2 2 2 2 2 2 2 2 2 2 2 2 2 2 2 2 2 2 2 2 2 2 2 2 2 2 2 2 2 2 2 2 2 2 2 2 2 2 2 2 2 2 2 2 2 2 2 2 2 2 2 2 2 2 2 2 2 2 2 2 2 2 2 2 2 2 2 2 2 2 2 2 2 2 2 2 2 2 2 2 2 2 2 2 2 2 2 2 2 2 2 2 2 2 2 2 2 2 2 2 2 2 2 2 2 2 2 2 2 2 2 2 2 2 2 2 2 2 2 2 2 2 2 2 2 2 2 2 2 2 2 2 2 2 2 2 2 2 2 2 2 2 2 2 2 2 2 2 2 2 2 2 2 2 2 2 2 2 2 2 2 2 2 2 2 2 2 2 2 2 2 2 2 2 2 2 2 2 2 2 2 2 2 2 2 2 2 2 2 2 2 2 2 2 2 2 2 2 2 2 2 2 2 2 2 2 2 2
left_child=1 5 7 15 10 20 22 13 17 29 11 21 34 25 32 28 41 30 79 35 53 27 26 40 67 95 37 44 57 62 46 50 56 55 68 52 66 71 47 162 58 239 87 94 122 63 104 72 81 103 96 140 98 85 101 154 99 177 89 86 155 192 124 82 147 107 91 84 120 168 83 128 173 131 -47 78 -40 116 123 138 152 109 186 -22 -8 -1 143 -24 193 117 217 174 166 110 178 212 144 -70 -7 150 139 102 219 112 201 -43 181 158 170 137 130 179 148 -48 -27 125 189 -15 240 195 -13 -44 135 -56 215 151 -78 -109 242 180 -38 -30 133 -107 204 194 -106 198 -16 -89 -46 -49 -72 -21 225 216 -118 -20 -14 -137 -10 -57 -34 -69 -28 -32 208 184 -26 224 -93 -33 -18 203 -87 205 -35 -55 169 176 231 -37 -62 241 -31 -104 -50 -3 -19 -41 -36 182 -86 -99 -65 -61 -23 -102 200 229 -53 -75 -58 248 -4 -82 -63 -88 -29 -200 -189 -5 -203 -59 -51 -67 -97 -108 -45 243 -149 -175 -2 -115 -126 -9 -90 218 -42 -25 -156 -121 -201 -80 -64 -17 -76 -84 -168 -68 -132 -73 -233 -52 -77 -183 -123 -103 -91 -12 -83 -11 -6 -100 -210 -85 -159 -186 -39
right_child=2 3 4 8 6 19 24 9 14 38 16 12 49 23 18 31 39 43 64 59 70 45 42 54 65 114 33 48 73 36 60 161 80 92 129 171 93 88 76 111 90 105 121 156 51 74 113 141 69 134 233 190 -54 167 75 115 61 163 -60 185 172 196 159 157 -66 165 77 153 97 -71 142 108 -74 191 226 234 126 -79 223 -81 119 118 227 245 106 164 197 100 145 238 -92 160 -94 -95 -96 206 -98 183 209 -101 187 237 175 -105 136 132 207 127 -110 -111 -112 -113 -114 213 -116 -117 146 -119 -120 221 -122 236 -124 -125 214 -127 -128 -129 -130 -131 230 -133 -134 -135 -136 149 -138 -139 -140 -141 -142 -143 -144 -145 -146 -147 -148 210 -150 -151 -152 -153 -154 -155 220 -157 -158 246 -160 -161 -162 -163 -164 -165 -166 -167 228 -169 -170 -171 -172 -173 -174 211 -176 -177 -178 -179 -180 -181 -182 235 -184 -185 247 -187 -188 188 -190 -191 -192 -193 -194 -195 -196 -197 -198 -199 199 222 -202 202 -204 -205 -206 -207 -208 -209 244 -211 -212 -213 -214 -215 -216 -217 -218 -219 -220 -221 -222 -223 -224 -225 -226 -227 -228 -229 -230 -231 -232 232 -234 -235 -236 -237 -238 -239 -240 -241 -242 -243 -244 -245 -246 -247 -248 -249 -250
leaf_value=71.335045022965147 75.176646272988222 73.870936972883811 77.514959132855978 74.581145953910848 77.973725373095959 72.815021071355417 79.178949107711915 76.789909853426892 75.310662329158617 78.726369209395671 75.971950529410691 77.791879008820843 80.646637159581431 76.580782333559512 76.607391848346708 74.833594970667576 77.201187129437642 75.201260907869511 78.355902317040702 74.01152846119534 72.417722560198314 76.785868121041247 78.701267855122509 76.345620573591816 82.156407281527677 76.12873919861687 80.290698412839859 78.694663390590705 74.794099866009731 76.57424102094275 74.249110396178182 74.134280408550552 75.106983463032947 78.750474882750154 78.727004633349807 74.126704426087002 77.149175641680614 78.238862944548089 79.113036478640026 78.405686162355551 76.781726038833227 76.360214392656147 80.075146401057623 76.599978737744294 78.843281957630381 78.613304537336077 75.701456148034964 77.531781386504903 79.034754517837982 80.324679046470436 76.335216538685899 79.115976801707404 74.274103841684948 72.242336651850451 76.908431640435481 81.347207593887418 76.243506342735117 73.015744702270595 77.820650163392415 75.401798863868081 74.890140317495607 77.226144670239577 77.574676112667078 78.1302988577241 77.438484668808755 80.947274492631948 77.318218929668532 81.645010879269535 78.204585905420828 80.753519112336861 73.165542099630741 78.026818719884943 78.072413981801716 73.975568289321743 77.279085054127719 75.671876841094928 80.749115588385692 76.816690688723426 77.709684283731576 76.272387129996801 75.632636779514584 78.99460983542464 78.164144966771218 72.698540844849163 79.779508896644174 71.804139613464628 74.900952369970952 78.694823355578706 79.118651387472852 77.084023162006105 79.251740207015771 77.325598228679056 79.125985509033057 78.921705232034341 76.608487724762782 74.444850655088104 75.721651990430033 78.803764095184121 72.957749831815562 76.758052634965068 78.713216092243997 75.454194984454062 76.631932760632239 80.64783526038542 75.317904260432499 77.118380265479601 80.25276117530926 82.165995713774265 79.274412807224763 78.955296201831942 78.583193256120225 79.023872675398124 79.34014336927585 76.57135789278199 76.954836041695387 79.417992084544267 78.437674775894038 77.377460462222174 78.456298033252054 76.155206452739449 78.419983873168306 81.341641713314075 78.410000868961802 76.295912143536611 76.383114192116153 79.242655055803425 79.423956633386197 83.389018494933836 77.624227648913632 79.972605670122803 77.789018064616641 75.735940314747211 76.626543463111432 78.078249337751686 81.759111523207835 77.933644475092578 76.167781137775663 78.818832508537099 77.351636887807004 80.474402986915422 78.152949256821231 79.271414167200504 74.151898495159386 74.847942034774263 76.471120533899779 80.22498306475579 77.82507681847396 78.738741474704824 79.775332485371436 79.102508615046844 76.114873260139689 80.220409815371184 75.891020402761882 80.519091687202049 78.668382321983103 74.699331420062521 76.511246116924227 78.088852856920212 80.480421148017697 77.311466480672109 78.190347145602075 74.68028469887409 77.723305981852619 73.671958112572185 72.360018774667481 80.454709535006103 78.443981100968983 72.896052985705268 79.859886282564233 79.256239094490041 78.612164891087545 74.853604954973889 75.430033660622342 79.974631472684266 77.242889471186444 77.654567319129598 78.512586383951046 74.388759623025805 76.003028199049695 77.682408551017616 79.381094382805827 81.877193677732549 80.868333459298313 79.433853282358427 77.416960860337923 76.41750769615976 77.283706764133171 79.199601303535346 80.212000013860163 78.113089665580759 80.183114567683816 74.543956189996862 77.176189055879405 79.368997023264143 78.209059330093282 76.361612702925697 78.137799041363294 75.776328194249118 78.038296959027647 78.089724062126635 79.602438357030934 74.885961748428699 75.598409961285739 73.504943557169895 81.706085175301325 81.911625762929006 75.145172993403094 79.472869838762094 77.325752496640916 73.565879022119745 79.778222707393823 79.188923026181172 75.722946513316657 75.179050540983212 76.856902153141036 77.232273389224986 79.906173075994687 78.635965314904041 77.969533408476693 75.940486400585797 79.235337954923139 76.968607355848803 78.784880333616357 77.053719552341377 78.534810960510939 75.279902484462909 77.992796011164273 77.211900285012902 77.76213659772904 78.23417102664375 78.258082576135649 78.317923398571764 79.295173047790385 78.028049708199589 76.400593783524599 80.909946679222102 80.061839756219911 76.099477169557829 77.50951184222032 75.286929027782492 79.576688927755526 79.386407959560557 78.681830694604017 73.493012204356077 78.193564083171239 73.15564053576972 78.886429171093084 77.85011063358867 79.014658330109398
leaf_weight=6477 3387 6676 10333 2513 1499 4537 1054 3762 1359 2207 1744 5085 1571 10003 2623 6806 3683 2275 2852 3320 10630 3165 2699 5139 632 4223 514 1766 2516 3970 6451 5187 4949 5300 2031 9795 1524 2393 1699 4794 528 2779 3373 489 2221 6599 4337 2173 4588 1093 1838 846 3180 5958 5800 639 2460 4584 3458 1879 4590 988 966 3059 2153 809 5706 1849 3134 659 5258 4533 1718 2859 864 1614 1877 1924 1995 5894 6557 3285 2140 2717 798 11978 2085 286 5241 6453 1005 6820 6400 1909 1611 2792 3499 5238 2934 2733 1114 2638 2077 2066 4562 3807 2583 1167 1710 3003 2667 2507 3201 2975 2463 2476 2814 1976 3191 1794 5419 1161 2556 4600 4760 834 707 1243 4612 1706 4208 1603 2335 1297 1234 4259 1526 2555 3156 1714 5864 282 907 1589 343 842 5822 964 2321 593 5538 4119 1481 786 1801 7070 1067 2049 383 5895 1005 3805 6663 5294 2526 755 2517 1989 802 4690 8610 1352 3983 1514 2102 809 4330 3290 1464 1418 3864 584 1291 1917 4016 741 6711 6594 832 1200 991 3616 748 659 1091 1028 1329 857 10762 1459 5017 3626 1591 3311 307 1246 1372 1029 1277 8471 705 1344 2605 245 3308 5380 800 467 899 5249 4911 990 2050 1837 801 2865 8414 550 1291 509 3052 3934 568 146 1319 1391 294 1394 3093 1492 1669 1409 1484 2337 808 5092 812 3848 816
leaf_count=6477 3387 6676 10333 2513 1499 4537 1054 3762 1359 2207 1744 5085 1571 10003 2623 6806 3683 2275 2852 3320 10630 3165 2699 5139 632 4223 514 1766 2516 3970 6451 5187 4949 5300 2031 9795 1524 2393 1699 4794 528 2779 3373 489 2221 6599 4337 2173 4588 1093 1838 846 3180 5958 5800 639 2460 4584 3458 1879 4590 988 966 3059 2153 809 5706 1849 3134 659 5258 4533 1718 2859 864 1614 1877 1924 1995 5894 6557 3285 2140 2717 798 11978 2085 286 5241 6453 1005 6820 6400 1909 1611 2792 3499 5238 2934 2733 1114 2638 2077 2066 4562 3807 2583 1167 1710 3003 2667 2507 3201 2975 2463 2476 2814 1976 3191 1794 5419 1161 2556 4600 4760 834 707 1243 4612 1706 4208 1603 2335 1297 1234 4259 1526 2555 3156 1714 5864 282 907 1589 343 842 5822 964 2321 593 5538 4119 1481 786 1801 7070 1067 2049 383 5895 1005 3805 6663 5294 2526 755 2517 1989 802 4690 8610 1352 3983 1514 2102 809 4330 3290 1464 1418 3864 584 1291 1917 4016 741 6711 6594 832 1200 991 3616 748 659 1091 1028 1329 857 10762 1459 5017 3626 1591 3311 307 1246 1372 1029 1277 8471 705 1344 2605 245 3308 5380 800 467 899 5249 4911 990 2050 1837 801 2865 8414 550 1291 509 3052 3934 568 146 1319 1391 294 1394 3093 1492 1669 1409 1484 2337 808 5092 812 3848 816
internal_value=76.828 74.4978 78.1275 75.3561 78.6699 73.0674 79.3373 77.1443 75.8952 77.7181 78.2833 78.4663 79.1285 76.5282 76.4872 74.405 77.4056 75.3275 77.231 73.981 72.3322 78.2365 79.0158 76.7692 81.0103 75.636 78.8267 78.4672 73.9765 77.4345 75.1085 74.9954 76.0601 79.1777 78.669 73.6924 77.6586 78.54 79.0494 77.962 77.1898 76.6172 79.577 76.3861 78.0874 77.8346 75.4903 78.7147 78.711 80.2349 75.3611 78.5924 73.421 71.913 76.429 79.5875 76.4819 73.6774 77.0604 74.8797 74.7392 77.0012 77.0269 77.6072 78.2655 81.8891 77.4554 80.5281 78.4241 79.0727 72.8252 78.3264 79.0093 74.6303 78.2119 76.6977 79.8814 77.683 76.8415 76.6395 75.6797 78.5277 77.3051 72.6629 80.2923 71.7263 74.6097 79.3649 79.0755 76.9382 78.3051 77.161 78.7734 78.1436 75.8444 75.1113 75.1997 78.7387 73.2726 76.1839 79.48 76.1626 76.31 79.9695 75.1967 76.9216 80.4452 82.4196 78.4938 78.3862 78.0138 78.4658 79.7719 76.027 76.4331 79.9623 77.7868 76.7122 78.903 75.9229 78.1159 80.3789 77.8213 76.6375 76.8286 80.2033 80.3865 82.7968 77.8999 79.3391 77.841 75.1606 77.1314 77.3623 81.1577 77.7289 75.5309 78.2943 77.0138 80.2199 78.3426 77.7316 73.3107 74.2823 75.0174 79.3455 78.0247 78.6593 80.127 78.0765 75.9564 80.3717 75.2876 81.3092 79.1691 74.4845 77.1822 77.8826 81.524 77.4725 77.4367 74.3653 77.5374 73.402 71.901 81.2425 78.5257 72.406 78.9959 78.9449 78.4182 74.2149 75.141 79.258 76.8057 76.9186 78.7812 74.0419 75.5152 78.2406 79.1557 80.8138 80.4524 78.9726 77.7693 75.6891 77.1242 79.3708 79.4297 77.5097 79.6917 74.293 76.461 78.5951 77.5812 75.7314 77.7491 75.1559 78.2107 78.1508 79.3737 74.9335 75.1032 73.2209 80.6276 81.532 74.6756 80.0306 77.4603 73.4236 79.1778 79.6051 75.4141 76.4654 76.5774 77.0502 79.2229 77.8027 77.53 76.1409 79.0832 76.4445 78.4958 77.3952 78.0099 74.9658 77.9263 77.9694 78.2128 77.3932 77.9862 78.2333 78.4412 76.4598 75.9996 81.196 81.083 75.6773 77.2219 75.6561 79.1907 78.9836 78.326 73.1951 77.6621 72.9966 78.3152 77.6289 78.4361
internal_weight=719520 257608 461912 160999 297683 96609 109187 164229 102761 85034 188496 155977 40187 79195 50301 58238 32519 52460 18347 43077 53532 115790 91587 62353 17600 16842 68503 73563 33749 70104 43469 24489 31954 30802 28394 32606 45232 37701 14930 19065 27882 13454 23084 8991 28754 42227 21375 10647 44809 11793 15497 9922 21459 28928 34471 15294 15155 23155 24983 10471 22094 5525 24872 26350 6674 6235 31872 11365 20793 15069 24604 26950 8192 10594 15877 17165 4283 17975 14232 11673 16799 29740 12566 18439 8730 20981 7851 18256 10751 21525 2899 13897 15508 13360 5350 10156 13513 10289 18279 9630 15557 17306 13274 9159 13818 10218 7676 3425 19355 21595 11451 8719 7093 7557 6686 8068 16051 11979 8145 10369 10504 4828 18832 10400 17210 5592 2584 2410 7595 7601 8784 4119 7439 5104 2634 16276 6088 18592 5779 2000 8085 2455 6165 4909 10014 6883 8636 4521 3892 4852 6897 4758 6430 2635 7226 13521 3641 13784 1015 7662 7825 8992 10346 13189 14504 2810 9108 7947 14410 13608 17645 11147 8573 6474 6072 2886 8918 9966 3739 6212 5895 4064 2089 7155 10923 2620 9876 13557 12443 7415 1837 6475 3208 3868 11424 7585 2317 2942 16037 14271 11611 7730 5217 7895 1400 2055 4164 3612 2574 13742 1669 2858 5992 3220 8068 9142 6041 1894 1427 10388 6712 2784 3509 3832 1767 9671 9278 2690 3808 6215 7260 9035 4502 1984 2933 1975 1455 4032 9546 3236 4954 3616 2983 5271 2085 7809 2861 7864 3209
internal_count=719520 257608 461912 160999 297683 96609 109187 164229 102761 85034 188496 155977 40187 79195 50301 58238 32519 52460 18347 43077 53532 115790 91587 62353 17600 16842 68503 73563 33749 70104 43469 24489 31954 30802 28394 32606 45232 37701 14930 19065 27882 13454 23084 8991 28754 42227 21375 10647 44809 11793 15497 9922 21459 28928 34471 15294 15155 23155 24983 10471 22094 5525 24872 26350 6674 6235 31872 11365 20793 15069 24604 26950 8192 10594 15877 17165 4283 17975 14232 11673 16799 29740 12566 18439 8730 20981 7851 18256 10751 21525 2899 13897 15508 13360 5350 10156 13513 10289 18279 9630 15557 17306 13274 9159 13818 10218 7676 3425 19355 21595 11451 8719 7093 7557 6686 8068 16051 11979 8145 10369 10504 4828 18832 10400 17210 5592 2584 2410 7595 7601 8784 4119 7439 5104 2634 16276 6088 18592 5779 2000 8085 2455 6165 4909 10014 6883 8636 4521 3892 4852 6897 4758 6430 2635 7226 13521 3641 13784 1015 7662 7825 8992 10346 13189 14504 2810 9108 7947 14410 13608 17645 11147 8573 6474 6072 2886 8918 9966 3739 6212 5895 4064 2089 7155 10923 2620 9876 13557 12443 7415 1837 6475 3208 3868 11424 7585 2317 2942 16037 14271 11611 7730 5217 7895 1400 2055 4164 3612 2574 13742 1669 2858 5992 3220 8068 9142 6041 1894 1427 10388 6712 2784 3509 3832 1767 9671 9278 2690 3808 6215 7260 9035 4502 1984 2933 1975 1455 4032 9546 3236 4954 3616 2983 5271 2085 7809 2861 7864 3209
is_linear=0
shrinkage=1


Tree=1
num_leaves=250
num_cat=0
split_feature=112 112 112 36 127 17 55 127 112 17 88 40 17 55 19 112 55 17 73 17 17 112 129 88 112 38 4 73 131 17 89 21 17 7 19 40 131 0 73 76 19 131 76 131 131 17 73 17 131 6 66 76 112 6 19 125 89 127 19 88 40 17 19 88 90 19 17 17 124 88 73 76 17 17 113 122 40 127 35 91 17 94 117 76 86 19 17 19 59 1 117 89 131 17 73 117 112 143 112 94 4 109 0 111 73 94 18 89 76 112 79 112 111 124 131 131 89 1 19 89 131 4 112 21 73 4 131 6 88 73 131 4 73 19 76 91 76 0 133 79 76 55 112 122 40 76 21 21 19 19 129 17 17 89 40 1 112 127 94 6 88 17 21 73 17 76 112 131 76 40 73 111 76 40 21 94 112 125 131 90 94 111 91 112 73 73 112 124 88 40 6 125 22 126 79 112 73 21 125 17 112 76 20 19 18 90 93 76 130 20 73 21 76 79 94 124 79 1 35 131 76 19 89 17 55 112 79 78 131 117 128 6 89 113 128 112 17 16 128 112 130 3 21 73 79 112 117 76 90
split_gain=1.76483e+08 2.56656e+07 1.99542e+07 7.04838e+06 6.22095e+06 4.77588e+06 4.73036e+06 4.70211e+06 2.98602e+06 2.61408e+06 2.48692e+06 1.67506e+06 1.56739e+06 1.37921e+06 1.31521e+06 1.31139e+06 1.11304e+06 1.01023e+06 980336 829887 824278 814232 793168 722606 642057 631037 570503 558725 504990 501088 456983 433212 404582 402534 394470 359489 344330 343721 326844 325964 325321 318437 288603 280093 278872 271439 267580 260672 225746 225212 222490 221766 218522 216548 214300 292304 270702 209808 207752 201370 249491 190374 184500 180688 180500 174468 174193 170371 164654 162351 162011 161791 159504 156684 154268 152509 151569 150986 149435 148238 141132 139956 136761 136508 136187 134483 133638 132940 131522 126517 121985 119477 118044 117536 113915 111816 111576 110097 109213 108165 105354 104083 101779 98982.7 98253.3 126921 97642.7 96546.3 95525.7 95047.6 94007.8 92978.3 91275.3 90107.4 89191 88745.5 88659.6 86962.4 86955.5 86922.2 86606 86422.8 85430.5 83969.5 83814.9 83694.3 83002.2 80051.4 79388.1 76605.1 76309.5 75827.5 75522 74642.1 73581.8 73438.2 73194.2 72017.4 71762 71451.2 71150.8 69680.9 69334.1 69121.3 68316 67538.1 67557.4 67175.4 66449.8 66292.7 65079.3 64331.4 64326.4 62040.4 61394.4 61281.7 60776 59913.9 59568.6 58707.6 58596.2 56951.1 56832.6 55756.5 55740 55587 55305.9 54749.4 52932.8 52824 52686 52487.4 52452.7 52257.1 51460.8 51289.9 50766 50657.8 50494.6 50292.8 49821.7 49769.9 49131 48997.2 48956.5 48942.4 48903.1 48881.8 48811.3 48771.2 48581.6 48269.8 62237.5 48215.5 48093.7 48024.4 47824.9 46769.1 46310.3 46138.9 44493.7 44275.3 44153.5 43922.4 43782.9 43751.4 43709.8 42630.3 42627.5 42319.9 41775.6 41247.2 41041.2 41003.1 40909.1 40881 40108.4 39809.9 39726.4 39460.1 39147.3 38711.5 38351.8 38088.5 37779.7 37350 37162.4 36395.7 36382.4 36320.8 36005.6 35874.5 35848.6 35567.5 35552.4 35382.7 35350 35269.3 34775 34443.5 34427.9 34260.4 34095 33971.7 33605.7 33573.1 33092.7 33039 33029.2
threshold=119.50000000000001 89.500000000000014 136.50000000000003 1.0000000180025095e-35 3.5000000000000004 66.068771362304702 2.5000000000000004 2.5000000000000004 106.50000000000001 63.35766792297364 77.166309356689467 263.50000000000006 83.79169082641603 2.5000000000000004 1.5000000000000002 104.50000000000001 3.5000000000000004 42.511627197265632 18.819169998168949 28.33763408660889 108.77531814575197 147.50000000000003 40.694160461425788 43.153633117675788 146.50000000000003 1.0000000180025095e-35 59.500000000000007 36.584445953369148 48.500000000000007 34.476598739624031 54.57677078247071 14.507330894470217 105.222713470459 8.3022274971008319 1.5000000000000002 273.50000000000006 65.500000000000014 2.5000000000000004 39.976373672485359 109.50000000000001 1.0000000180025095e-35 33.500000000000007 80.500000000000014 56.500000000000007 44.500000000000007 41.192634582519538 60.922084808349616 30.633100509643558 62.500000000000007 6.5000000000000009 0.0097096534445881861 89.500000000000014 131.50000000000003 12.500000000000002 2.5000000000000004 54.807052612304695 37.094001770019538 2.5000000000000004 2.5000000000000004 89.927429199218764 237.50000000000003 101.92183685302736 1.5000000000000002 43.679235458374031 11.198484897613527 1.5000000000000002 126.3724937438965 33.064077377319343 40.485557556152351 30.464982986450199 17.473765373229984 107.50000000000001 43.89934158325196 92.993999481201186 2.9128788709640507 18.111250877380375 232.50000000000003 2.5000000000000004 0.23069622367620471 1.5000000000000002 152.83906555175784 61.000000000000007 18.832437515258793 80.500000000000014 17.282400131225589 1.5000000000000002 26.745059967041019 1.5000000000000002 42.500000000000007 107.89527893066408 8.0883674621582049 55.949802398681648 33.500000000000007 78.918441772460952 18.575914382934574 9.8357229232788104 128.50000000000003 0.22933743149042132 82.500000000000014 51.000000000000007 58.500000000000007 28.809422492980961 1.5000000000000002 14.500000000000002 44.340026855468757 59.000000000000007 4.9848759174346933 37.094001770019538 134.50000000000003 142.50000000000003 11.295833587646486 100.50000000000001 19.500000000000004 32.350406646728523 39.500000000000007 24.500000000000004 37.094001770019538 76.250347137451186 2.5000000000000004 51.927881240844734 66.500000000000014 72.500000000000014 129.50000000000003 24.433968544006351 31.923799514770511 82.500000000000014 67.500000000000014 12.500000000000002 116.13259124755861 34.145133972167976 60.500000000000007 94.500000000000014 39.149187088012702 2.5000000000000004 75.500000000000014 1.5000000000000002 107.50000000000001 1.5000000000000002 11.500000000000002 10.747549057006838 127.50000000000001 4.5000000000000009 134.50000000000003 15.561326503753664 289.50000000000006 110.50000000000001 20.167220115661625 9.4009747505188006 2.5000000000000004 2.5000000000000004 53.796186447143562 45.23942947387696 19.799098968505863 49.907470703125007 276.50000000000006 63.02067947387696 131.50000000000003 2.5000000000000004 53.000000000000007 19.500000000000004 96.198715209960952 34.12340164184571 21.881045341491703 24.248456954956058 70.459526062011733 140.50000000000003 144.50000000000003 68.500000000000014 136.50000000000003 245.50000000000003 28.809422492980961 9.5000000000000018 127.50000000000001 270.50000000000006 27.035829544067386 49.000000000000007 140.50000000000003 29.280184745788578 30.500000000000004 16.307771682739261 49.000000000000007 20.500000000000004 1.5000000000000002 150.50000000000003 23.234800338745121 36.880502700805671 141.50000000000003 63.520902633666999 50.754919052124031 221.50000000000003 15.500000000000002 70.578330993652358 25.000000000000004 12.873400688171388 16.101190567016605 79.500000000000014 29.896336555480961 12.580212116241457 61.604688644409187 60.171148300170906 148.50000000000003 142.50000000000003 7.5000000000000009 2.5000000000000004 7.5303120613098153 16.901138305664066 40.139423370361335 88.500000000000014 85.000000000000014 20.500000000000004 17.310417175292972 15.144766807556154 109.50000000000001 10.891252994537355 53.000000000000007 39.695749282836921 10.891252994537355 20.001225471496586 0.19211344420909884 27.500000000000004 100.50000000000001 2.5000000000000004 65.363151550292983 48.567396163940437 5.5000000000000009 101.50000000000001 13.596296310424806 17.500000000000004 44.500000000000007 22.908672332763675 32.500000000000007 17.500000000000004 26.099050521850589 3.7182539701461796 35.500000000000007 112.50000000000001 17.152922630310062 53.383886337280281 30.500000000000004 149.50000000000003 69.000000000000014 10.500000000000002 43.040735244750984 37.816528320312507 10.465578079223635 129.50000000000003 25.702381134033207 89.500000000000014 13.591598987579347
decision_type=2 2 2 2 2 2 2 2 2 2 2 2 2 2 2 2 2 2 2 2 2 2 2 2 2 2 2 2 2 2 2 2 2 2 2 2 2 2 2 2 2 2 2 2 2 2 2 2 2 2 2 2 2 2 2 2 2 2 2 2 2 2 2 2 2 2 2 2 2 2 2 2 2 2 2 2 2 2 2 2 2 2 2 2 2 2 2 2 2 2 2 2 2 2 2 2 2 2 2 2 2 2 2 2 2 2 2 2 2 2 2 2 2 2 2 2 2 2 2 2 2 2 2 2 2 2 2 2 2 2 2 2 2 2 2 2 2 2 2 2 2 2 2 2 2 2 2 2 2 2 2 2 2 2 2 2 2 2 2 2 2 2 2 2 2 2 2 2 2 2 2 2 2 2 2 2 2 2 2 2 2 2 2 2 2 2 2 2 2 2 2 2 2 2 2 2 2 2 2 2 2 2 2 2 2 2 2 2 2 2 2 2 2 2 2 2 2 2 2 2 2 2 2 2 2 2 2 2 2 2 2 2 2 2 2 2 2 2 2 2 2 2 2 2 2 2 2 2 2
left_child=1 6 7 15 10 24 22 13 18 28 11 21 31 26 33 25 40 70 29 41 48 27 49 39 37 53 95 34 52 85 50 72 44 43 73 166 54 67 79 61 190 77 193 90 189 74 66 87 81 88 100 159 114 97 55 210 183 82 68 60 91 96 134 80 149 92 -14 113 -38 155 152 232 103 112 225 -40 163 115 98 99 148 -7 176 -47 201 177 182 101 -1 241 141 122 151 211 215 127 120 -3 -24 131 158 -30 -54 198 105 167 -44 156 -57 -42 221 -76 125 135 -9 -8 -73 197 130 133 -15 -28 207 165 -85 191 -74 -2 140 -68 175 150 -53 173 -31 -6 143 212 209 -88 -111 199 238 186 -131 -103 -147 -138 172 -19 -23 -21 224 239 -82 -27 -89 -86 235 202 220 240 -110 242 -64 181 -18 -46 -48 -61 -135 -71 -22 -83 -175 -49 -29 -5 -90 -171 -69 -33 184 208 -39 -72 -59 -70 -100 -11 -12 -4 -193 -36 246 -67 -139 -62 -13 -10 -105 -37 -35 -158 -151 -200 -107 -25 -56 229 -26 -41 -116 -150 -163 -60 -156 -45 227 -51 -32 -50 -178 -94 -16 -20 -140 -182 -99 -115 -109 -55 247 -168 -145 -17 -43 -80 -104 -58 -92 -81 -75 -66 -98 -93 -84 -34 -95
right_child=2 3 4 8 5 20 19 9 14 32 16 12 46 23 17 30 35 64 45 65 63 38 78 59 36 69 121 57 47 62 160 123 71 51 42 84 58 86 75 93 109 236 106 217 104 83 168 118 110 219 -52 132 102 231 56 108 153 136 94 169 117 -63 164 -65 243 195 129 180 187 171 185 116 126 76 111 -77 -78 -79 237 89 154 119 194 124 157 -87 139 107 178 -91 161 245 223 248 -96 -97 244 228 188 -101 -102 145 142 200 -106 206 -108 230 162 128 -112 -113 -114 138 137 -117 -118 -119 -120 -121 -122 -123 -124 -125 -126 -127 -128 -129 -130 144 -132 -133 -134 170 -136 -137 147 196 226 -141 -142 -143 -144 234 -146 146 -148 -149 213 204 -152 -153 -154 -155 216 -157 203 -159 -160 -161 -162 214 -164 -165 -166 -167 233 -169 -170 179 -172 -173 -174 174 -176 -177 222 -179 -180 -181 218 -183 -184 -185 -186 -187 -188 -189 -190 -191 -192 192 -194 -195 -196 -197 -198 -199 205 -201 -202 -203 -204 -205 -206 -207 -208 -209 -210 -211 -212 -213 -214 -215 -216 -217 -218 -219 -220 -221 -222 -223 -224 -225 -226 -227 -228 -229 -230 -231 -232 -233 -234 -235 -236 -237 -238 -239 -240 -241 -242 -243 -244 -245 -246 -247 -248 -249 -250
leaf_value=-4.8367605545737185 -2.2364905644129811 -3.4365793544649641 0.54664314581572027 -1.9651648327514071 1.9081693655421355 1.9976642453441888 -3.6238168399840287 -0.35991544849624818 -1.5054678148715928 0.2113516987066083 -1.2839166751618007 0.48832489741796803 2.9459606640314049 -0.23445184950754322 0.17172890181869005 -1.8869496574562428 0.29647052533186041 1.3335574531071896 -2.2982712413427975 -2.5995641175274073 2.8938142552905615 2.1592980888686917 -3.9554143489801499 -0.59322620425564787 1.0103524362896923 -1.6304803015866562 -0.60133197884626366 0.038234751118092242 -0.28795986930409478 -1.1169841149762274 -2.1782649919484851 1.8303042325553704 1.6099664198720096 0.088966977559162636 1.951446893789571 1.7752261561764211 1.6241757770450098 2.393276548196412 1.6373164063367736 0.51881623722255232 -0.34802661118359346 -2.5584247598000136 2.034126210994935 -0.30594833869458865 1.0178060094727048 -1.7594781356702816 1.7232441711122473 0.31414619220144824 3.8347938883233454 -4.0096113295296831 -0.33136205710921318 0.98041361536647154 0.34588767631746209 -2.5498678331423292 3.1044994149186196 1.8835707664663788 1.7160641246375907 0.93307008589028995 3.251471618149016 -1.1635281475181933 -0.066426918980539554 0.8552132998966695 0.022036681071210259 3.5792098096204463 0.78778362309194905 -1.7684361435080831 4.5101097308116636 1.2320526796791125 2.4337100465099546 -2.5333012601523093 -0.35994943355251341 3.397483751122035 1.6539643965987487 1.3338394576632902 -1.9003034034288266 1.0057289386342119 2.3133063652064565 -2.4110252919026114 -3.1860673001431223 1.326944795403008 4.6523017439205248 2.3539592360808999 0.86097048586398894 -0.5050119345798888 0.73990353303917489 -0.87650903754332676 3.1419959232724159 0.69825833599521914 -4.4312610559070853 2.353185259521644 -1.1240084626127993 -0.86819650889875677 -1.7872463916954786 2.5227202815895389 2.7215259871505255 -1.1816045255720899 0.6061344341765853 -2.9621954033349662 -3.3260217114635133 2.855334909399156 -0.95161992281685015 0.2361503907089651 1.3124832757713225 1.2400621402394441 1.0261788350984273 2.4002463558633278 3.2008480011227052 0.29490774615765109 2.3062907829575283 0.35231620435917693 3.2320844855696893 -1.4091046419086006 1.4489168400219534 1.0999582814939024 -0.17834828264186042 -3.1030795235432915 2.2294706512375306 1.0617598079665729 1.8653483332337464 2.2969168256075472 0.49154944127577549 0.17021325369470841 0.0669555302975713 2.8872743972794881 -1.3566449145802033 1.3635774087386778 2.5514943522378442 -1.4759191080374785 -0.18128388275426258 3.2498690150524121 1.4962397130202234 2.2498650796409847 -0.3492481298489899 3.9433189470728216 -0.24135527658955191 0.65483614719685035 0.99667308520662479 0.66151194026885085 1.9211505439208811 2.2280986671092493 1.3060250694009374 -0.79427835921717493 1.5880316904882814 0.58041048805270135 4.4530020455488071 0.63452804846058997 1.9211809864850296 1.8614843208321432 5.2302957452013912 1.6182243859603227 1.6110646323887707 -1.8557571657473859 0.60300377180751707 1.5615854613201128 6.5013481059145271 -0.56396749067120255 1.0113047629208507 1.4432132462443734 -0.32116454036868353 0.091375858108584701 -2.6398097743429041 -0.83691888697521422 3.2291908017393811 0.94886871236460613 0.8357746306151177 2.7374878631573019 0.68919181886567704 2.9170039250027564 2.7707874455101167 0.65977980558154659 3.1675324891509189 -1.9857077395857154 4.2365547306482583 2.894830379667642 3.9054849708689887 1.0038895885829566 0.57370935651803989 -1.3450500056594308 -3.8554276838030135 -0.72986547872019447 1.2365331910347439 2.6228066041912004 1.2907043950849948 2.9174408790635113 1.707267411564982 -0.9845093407249017 1.610212129273525 3.1405151033857068 -3.7967512044143223 1.113797564376112 -0.5057722205984686 1.6173844335990748 0.78809424242022486 1.4261010794588742 0.38366224577470315 -0.75903246679827374 0.13321853067000511 0.57810088207012111 1.3175381253279501 -0.86211441828540181 1.7501334372148634 2.5817777055191891 -0.89263593914388029 1.6358841465903584 2.5788398321021191 0.73626468744004037 1.8762549693188995 -0.061980382931289491 2.3450654878275294 1.7023854263326499 1.5147272384423971 1.5409868394791357 0.32689513858169583 4.3044504333701399 -0.21075102352808139 4.201826835059105 5.3788535296795565 0.39503342112807094 2.7368701860308651 -3.4025286209855148 -1.5498026308625814 4.6706776411873951 -0.069813392613450806 -0.98075570561536018 -0.68055260794830441 -1.8614422395884767 1.3535891274940381 1.9534830895444426 -2.4389861671125286 1.8650091607037305 0.96646886272420918 -2.0446479750217641 1.0919825573780386 1.3238631622172148 0.95809606809058556 -1.5058531124444015 -2.1460684428835926 -2.4113395431437974 0.46003956443098426 2.2706559737382568 -0.74246384409884525 1.8229874920331566 2.0050620437246525 -0.10077017432606571 0.20918420570204074 -0.48208693730758018 1.5545398513097703 2.5477716920410347 1.3097157365432941
leaf_weight=9883 2709 5484 6441 2379 547 1447 4398 4614 6887 1306 2136 1540 4173 9828 1463 4113 3430 2738 7611 3585 450 3158 10131 5448 2111 3406 4555 3772 2156 2000 5380 4329 660 562 2202 2413 2160 1835 6496 1250 3060 6662 1333 2247 1573 2750 1297 1303 1173 4117 1984 2030 5915 5742 872 7192 1612 2301 756 3375 4052 3857 2653 1744 1438 684 1287 1198 2597 3475 6734 2352 4800 2845 8875 9292 1681 2545 1711 7928 801 1241 1246 2676 1906 4436 1543 4296 11731 1686 5072 5034 2231 752 1889 4618 3302 10628 6440 1427 3081 5241 657 3281 1312 3525 1553 3913 5269 4637 1643 6811 2991 8568 6437 12791 898 1166 1498 1281 1973 2131 5706 1788 2034 2572 1312 2829 2335 1838 2798 5336 541 1619 1845 3217 1852 3241 2976 1920 941 2456 1341 5049 635 4035 454 1744 818 941 6888 1721 2515 3569 471 640 3626 3323 343 1300 2397 1960 764 3210 1233 1168 5338 168 768 309 1906 3527 823 2129 660 6246 6725 2952 1750 1657 816 970 1249 3987 2402 1542 1988 1570 3348 1106 1285 1108 4939 8455 848 1516 3636 1559 3582 1330 3572 948 2482 1633 957 2028 2903 2090 4850 1670 7394 577 2143 1152 2231 1128 982 1267 562 1447 1215 1050 1074 794 807 2635 1884 5353 1519 669 1003 1861 411 1058 4922 5976 3022 895 1762 3668 4431 1689 1031 614 6023 4075 1536 872 320
leaf_count=9883 2709 5484 6441 2379 547 1447 4398 4614 6887 1306 2136 1540 4173 9828 1463 4113 3430 2738 7611 3585 450 3158 10131 5448 2111 3406 4555 3772 2156 2000 5380 4329 660 562 2202 2413 2160 1835 6496 1250 3060 6662 1333 2247 1573 2750 1297 1303 1173 4117 1984 2030 5915 5742 872 7192 1612 2301 756 3375 4052 3857 2653 1744 1438 684 1287 1198 2597 3475 6734 2352 4800 2845 8875 9292 1681 2545 1711 7928 801 1241 1246 2676 1906 4436 1543 4296 11731 1686 5072 5034 2231 752 1889 4618 3302 10628 6440 1427 3081 5241 657 3281 1312 3525 1553 3913 5269 4637 1643 6811 2991 8568 6437 12791 898 1166 1498 1281 1973 2131 5706 1788 2034 2572 1312 2829 2335 1838 2798 5336 541 1619 1845 3217 1852 3241 2976 1920 941 2456 1341 5049 635 4035 454 1744 818 941 6888 1721 2515 3569 471 640 3626 3323 343 1300 2397 1960 764 3210 1233 1168 5338 168 768 309 1906 3527 823 2129 660 6246 6725 2952 1750 1657 816 970 1249 3987 2402 1542 1988 1570 3348 1106 1285 1108 4939 8455 848 1516 3636 1559 3582 1330 3572 948 2482 1633 957 2028 2903 2090 4850 1670 7394 577 2143 1152 2231 1128 982 1267 562 1447 1215 1050 1074 794 807 2635 1884 5353 1519 669 1003 1861 411 1058 4922 5976 3022 895 1762 3668 4431 1689 1031 614 6023 4075 1536 872 320
internal_value=1.502e-09 -2.09715 1.16958 -1.35695 1.65777 2.25841 -3.44314 0.28469 -0.862551 0.801076 1.30984 1.47659 2.05016 -0.269768 -0.348515 -2.21471 0.518613 0.303282 -1.4135 -2.62671 3.59832 1.28901 -4.07704 -0.0528808 1.93197 -2.59635 -1.07274 1.08529 0.523044 -0.80719 -1.64928 1.67073 1.90676 -0.718453 1.33495 1.03354 2.15959 1.61069 1.6297 0.325638 -0.140195 -2.89941 1.77488 -0.887839 1.58521 -1.73122 3.12682 0.763604 3.15423 -4.42349 -1.32022 -0.0354936 0.214098 -2.8723 2.03156 1.82571 2.2837 0.780468 2.68296 -0.359047 -0.255554 0.209165 -0.205704 4.46607 1.30277 -1.86493 3.39076 1.43529 2.33273 -1.96607 -0.208516 2.64317 1.4204 1.11279 -1.88414 1.2656 1.45962 -3.12988 -3.63209 1.83418 4.74744 2.90932 0.507422 -1.19965 1.50608 -1.28329 2.14892 0.588489 -4.55966 1.55415 -1.0082 -0.416695 -2.07409 1.32938 3.27027 -1.54497 0.0912149 -3.06467 -3.72526 2.02248 -1.46541 0.340683 0.604482 1.23436 1.82945 1.95847 2.66196 0.792029 2.12972 0.125253 3.80568 -1.68702 0.944337 1.27659 0.0259181 -3.23632 3.07475 0.275949 1.15326 3.05861 -0.113072 -0.355421 -0.224961 2.28072 -0.872787 0.844124 1.84663 -1.84796 0.308273 3.88442 1.05017 1.94522 0.700621 3.18776 -0.696819 0.836976 1.01291 0.141091 1.38153 2.6353 0.513205 -1.26164 1.01129 0.911244 3.5588 0.47998 0.764655 1.41609 4.32501 1.6484 1.7834 -2.35831 0.254668 1.88364 5.35522 -1.46178 0.977301 1.18685 -1.61716 -0.471164 -2.21638 -0.810674 2.42316 1.25711 0.28023 2.11302 0.62044 1.20107 2.11284 -0.923502 3.52384 -2.25747 3.7619 2.89379 3.134 0.884836 0.339421 -1.62178 -4.35651 -0.511452 1.82622 1.97537 1.84189 2.64832 2.00437 -0.476319 1.24693 2.70001 -3.48704 0.62516 -0.991629 0.737139 0.940046 1.53465 1.04294 -1.07287 0.382193 0.112653 0.974068 -1.40133 1.50593 2.00272 -0.711407 1.20525 2.10258 1.10741 2.1636 -0.445932 2.4608 1.23912 1.40271 0.841636 -0.0521552 4.68889 -0.50359 3.82047 5.74272 -0.0532039 1.93198 -3.85173 -2.06248 4.22961 0.48509 -1.57556 -0.131263 -2.18593 1.70113 1.85865 -2.89677 1.15537 0.431925 -2.4262 1.92128 0.794177 0.766848 -1.66122 -2.42974 -2.92 0.691563 2.10134 -0.946104 1.41406 1.51238 0.52191 0.349745 -0.695467 1.2439 2.14376 2.16063
internal_weight=719520 257608 461912 166206 297683 109187 91402 164229 105435 85034 188496 155686 38368 79195 54545 60771 32810 19749 50890 39949 21390 117318 51453 62353 87797 36282 16842 73418 67948 17498 24489 28370 17086 34796 40361 18416 51388 36409 43900 27882 14394 29418 13543 27881 11893 33392 9998 38202 14149 28928 15497 6915 29746 25234 41288 22730 18558 33057 10100 34471 29130 24983 7731 7241 6688 10531 7933 27460 6327 11048 13061 5193 20115 26818 25932 15788 8767 19734 22525 28112 5497 10283 15201 7460 8590 9767 8949 26357 23364 11303 24367 22353 8331 2899 3773 10156 21126 17631 19919 16809 13513 11886 9675 14003 9481 8169 2886 14471 13225 10973 3866 15686 18051 19531 20071 17189 3250 6777 11845 8836 11801 6686 13244 8255 4710 15060 6112 5538 7913 3760 10347 15382 2571 7555 3845 3764 17856 15457 15767 3463 5578 10673 3760 14260 2473 9730 4489 3596 3243 4636 10046 5306 4785 8849 2254 4046 9555 5229 10432 4344 8992 13694 6033 7086 3886 6467 9826 1741 2065 5341 3525 7002 1273 4030 2789 7549 11571 5331 13481 1966 7929 5299 5486 9709 4237 8276 4289 4167 9788 2412 3421 12488 6047 10657 3630 2200 6877 5611 7150 8217 6853 3361 3044 5259 1898 5610 6428 7538 5722 10907 9505 1827 8580 1970 4191 1884 1453 3514 6731 5564 6595 2223 7799 3025 2270 10246 4860 6169 12147 9237 4916 7603 1943 6396 9971 10089 9684 2606 2419 5280 9503 9617 3876 2052 9325 9109 2782 1532 1072
internal_count=719520 257608 461912 166206 297683 109187 91402 164229 105435 85034 188496 155686 38368 79195 54545 60771 32810 19749 50890 39949 21390 117318 51453 62353 87797 36282 16842 73418 67948 17498 24489 28370 17086 34796 40361 18416 51388 36409 43900 27882 14394 29418 13543 27881 11893 33392 9998 38202 14149 28928 15497 6915 29746 25234 41288 22730 18558 33057 10100 34471 29130 24983 7731 7241 6688 10531 7933 27460 6327 11048 13061 5193 20115 26818 25932 15788 8767 19734 22525 28112 5497 10283 15201 7460 8590 9767 8949 26357 23364 11303 24367 22353 8331 2899 3773 10156 21126 17631 19919 16809 13513 11886 9675 14003 9481 8169 2886 14471 13225 10973 3866 15686 18051 19531 20071 17189 3250 6777 11845 8836 11801 6686 13244 8255 4710 15060 6112 5538 7913 3760 10347 15382 2571 7555 3845 3764 17856 15457 15767 3463 5578 10673 3760 14260 2473 9730 4489 3596 3243 4636 10046 5306 4785 8849 2254 4046 9555 5229 10432 4344 8992 13694 6033 7086 3886 6467 9826 1741 2065 5341 3525 7002 1273 4030 2789 7549 11571 5331 13481 1966 7929 5299 5486 9709 4237 8276 4289 4167 9788 2412 3421 12488 6047 10657 3630 2200 6877 5611 7150 8217 6853 3361 3044 5259 1898 5610 6428 7538 5722 10907 9505 1827 8580 1970 4191 1884 1453 3514 6731 5564 6595 2223 7799 3025 2270 10246 4860 6169 12147 9237 4916 7603 1943 6396 9971 10089 9684 2606 2419 5280 9503 9617 3876 2052 9325 9109 2782 1532 1072
is_linear=0
shrinkage=0.1


Tree=2
num_leaves=250
num_cat=0
split_feature=112 112 112 36 127 127 17 55 17 112 19 89 88 112 127 89 40 17 112 17 55 112 17 73 38 55 17 89 40 21 89 0 17 3 112 19 76 131 4 19 76 89 131 76 19 17 17 19 112 6 18 17 127 112 17 82 9 131 40 73 10 76 73 22 112 30 17 30 17 112 130 4 73 143 131 73 112 73 87 1 127 73 22 17 3 124 5 117 73 131 131 89 90 88 19 4 17 76 143 94 86 89 17 112 122 124 73 4 131 17 50 40 19 55 89 40 19 59 59 89 40 76 17 109 112 131 111 92 19 3 111 76 92 128 91 125 89 54 109 14 89 79 73 76 19 73 76 125 79 73 19 94 40 73 112 131 23 17 76 76 19 21 7 88 1 113 35 112 128 19 125 76 89 94 59 115 131 76 124 21 19 94 17 1 112 91 73 122 4 109 76 91 124 21 7 0 10 89 56 92 122 73 88 40 21 105 1 19 106 125 94 17 89 21 117 89 6 122 22 89 113 6 131 127 93 94 76 17 4 94 1 76 76 130 112 35 40 131 112 88 128 128 73 16 104 129 109 21 22
split_gain=1.42951e+08 2.07892e+07 1.61766e+07 5.70919e+06 5.17381e+06 4.33781e+06 4.64832e+06 3.8316e+06 2.57814e+06 2.42288e+06 1.32163e+06 1.29812e+06 1.2041e+06 1.06222e+06 1.06003e+06 1.05663e+06 879950 868090 733311 676464 675000 656663 611622 525132 511140 481486 478069 457169 444050 377058 374391 373459 365318 353872 340137 335144 300239 287789 287440 286616 271225 266705 261685 253225 242178 224807 223636 207301 183390 180354 179340 177808 167627 163780 160905 160808 160677 157677 156663 195526 155725 153107 153977 149281 149114 145716 141695 140061 136645 136234 134595 132180 131043 130873 130442 129360 128501 121221 120984 187069 118951 118223 118009 116628 115738 113188 110633 109786 109597 108064 106948 103085 100436 99872.7 99040.4 96331.3 95263.9 93390.7 92232 92079.6 96339.4 91732.4 89783.5 86486.5 84830.7 97732.2 84629.2 83519.6 80808.1 80652.7 80065.2 78706 78244.4 77246 76460.8 76417.2 76327 75554.2 74045.3 73824.2 73213.6 71890.2 70265.1 68987.6 68690.9 68194.5 67798 67551.9 68709.9 67335.1 65799.4 65046.4 64463.8 64312.5 63695.8 63010.1 62851.9 61578.8 61428 60824.7 60173 59426.6 59278.7 82208.2 59119.1 87599.1 64586.7 58283.9 57137.8 56400.7 55958.9 77116.3 55578.9 54471.6 52322.5 51434.2 51267.7 50764.8 50651 50383.1 56176.1 50252.3 49666.7 49057.7 48925.9 48791.6 48669 47875.1 47821 47496.3 54810.8 51167 47413 47248.5 46945.8 46895.6 46299.9 46171.8 45537.2 44544.6 43753.7 59513.8 43622.6 43425.6 42852.5 42816.1 42662.1 42570 44964.9 42541.2 47072.6 42416.6 42083 41609.5 41469.3 41214.2 41183.3 41055.1 40099.6 39937 39917.6 39796.4 38420 38390 38247.3 38195.8 38131.1 38071.1 37888.4 37104.8 36806.3 36646 36426.6 36262 36045 35777.8 35748.8 35717 35462.7 35261 34644.7 34107.1 33977.4 33761.4 33301.6 33122.5 32064.4 31952.7 31564.7 31487.2 35537 31441 31417.8 31341.1 31311.1 31266.6 31104.1 31095 30694 30651.5 30638.6 30366.1 35732.4 30228.7 30073.8 29977 29921.1 29812.7 29793.9
threshold=119.50000000000001 89.500000000000014 139.50000000000003 1.0000000180025095e-35 2.5000000000000004 2.5000000000000004 79.876903533935561 2.5000000000000004 70.459526062011733 107.50000000000001 2.5000000000000004 66.219184875488295 52.983350753784187 104.50000000000001 3.5000000000000004 32.163124084472663 280.50000000000006 57.182029724121101 130.50000000000003 31.979916572570804 2.5000000000000004 71.500000000000014 76.164634704589858 28.419272422790531 1.0000000180025095e-35 2.5000000000000004 142.59502410888675 27.281184196472172 230.50000000000003 19.519758224487308 42.334764480590827 2.5000000000000004 133.58164215087893 9.5000000000000018 147.50000000000003 2.5000000000000004 107.50000000000001 27.500000000000004 85.500000000000014 2.5000000000000004 87.500000000000014 31.562958717346195 53.500000000000007 107.50000000000001 1.5000000000000002 41.192634582519538 43.89934158325196 1.5000000000000002 147.50000000000003 11.500000000000002 9.3759703636169451 41.633977890014656 2.5000000000000004 101.50000000000001 85.911849975585952 0.25403331220149999 15.938848018646242 52.500000000000007 267.50000000000006 102.28944396972658 0.06120582856237889 118.50000000000001 70.243511199951186 51.000000000000007 150.50000000000003 0.010211589280515911 33.064077377319343 0.011241407599300148 24.605569839477543 129.50000000000003 65.000000000000014 56.500000000000007 60.922084808349616 0.26878215372562414 64.500000000000014 31.959012031555179 128.50000000000003 91.01581192016603 5.5000000000000009 22.527573585510257 2.5000000000000004 28.809422492980961 31.000000000000004 28.991716384887699 9.5000000000000018 50.729413986206062 1.9858641624450686 16.408942222595218 75.03833389282228 34.500000000000007 42.500000000000007 36.465009689331062 16.307771682739261 47.376041412353523 1.5000000000000002 75.500000000000014 29.313608169555668 110.50000000000001 0.22259759902954104 65.000000000000014 12.253787994384767 49.907470703125007 35.992856979370124 129.50000000000003 18.247093200683597 63.26201248168946 30.39286041259766 25.500000000000004 39.500000000000007 42.069988250732429 31.091856956481937 235.50000000000003 1.5000000000000002 2.5000000000000004 89.972980499267592 245.50000000000003 3.5000000000000004 50.500000000000007 39.500000000000007 31.765669822692875 265.50000000000006 98.500000000000014 66.068771362304702 42.441236495971687 132.50000000000003 56.500000000000007 9.5000000000000018 17.500000000000004 1.5000000000000002 15.500000000000002 9.5000000000000018 86.500000000000014 22.500000000000004 35.500000000000007 1.5000000000000002 35.110383987426765 53.897308349609382 34.284706115722663 91.01581192016603 4.2931518554687509 85.875949859619155 8.7770895957946795 44.967750549316413 116.50000000000001 1.5000000000000002 43.556461334228523 119.50000000000001 131.41876983642581 14.280193328857424 21.348388671875004 1.0000000180025095e-35 39.000000000000007 255.50000000000003 11.37533473968506 112.50000000000001 38.500000000000007 29.500000000000004 18.981615066528324 102.50000000000001 113.50000000000001 1.5000000000000002 27.035829544067386 8.5894637107849139 19.267991065979007 51.02937316894532 4.1937499046325692 0.22353112697601321 78.500000000000014 43.500000000000007 1.5000000000000002 53.338434219360359 107.50000000000001 43.318099975585945 73.000000000000014 66.500000000000014 21.667044639587406 71.500000000000014 108.50000000000001 63.520902633666999 11.444476604461672 1.0000000180025095e-35 39.000000000000007 52.743141174316413 80.02188873291017 64.500000000000014 1.5000000000000002 56.414127349853523 15.642683982849123 74.500000000000014 33.448455810546882 72.500000000000014 1.5000000000000002 89.05817031860353 12.125157833099367 6.9494345188140878 1.5000000000000002 0.090823944658041014 141.6868591308594 64.500000000000014 23.500000000000004 18.111250877380375 17.310417175292972 127.44401168823244 249.50000000000003 22.061508178710941 0.044543651863932616 13.208030223846437 1.5000000000000002 0.039578111842274673 27.962576866149906 67.000000000000014 105.222713470459 62.753572463989265 16.22919845581055 7.1567437648773202 52.312059402465827 16.500000000000004 11.148351669311525 27.000000000000004 55.822870254516609 3.3229166269302373 13.500000000000002 68.500000000000014 3.5000000000000004 50.658723831176765 79.000000000000014 139.50000000000003 51.116838455200202 92.500000000000014 53.000000000000007 26.946140289306644 96.500000000000014 101.50000000000001 83.000000000000014 148.50000000000003 0.22353112697601321 286.50000000000006 44.500000000000007 148.50000000000003 41.724124908447273 21.500000000000004 35.500000000000007 33.485599517822273 34.921695709228523 0.017027417197823528 57.467206954956062 47.314428329467781 15.68515205383301 27.000000000000004
decision_type=2 2 2 2 2 2 2 2 2 2 2 2 2 2 2 2 2 2 2 2 2 2 2 2 2 2 2 2 2 2 2 2 2 2 2 2 2 2 2 2 2 2 2 2 2 2 2 2 2 2 2 2 2 2 2 2 2 2 2 2 2 2 2 2 2 2 2 2 2 2 2 2 2 2 2 2 2 2 2 2 2 2 2 2 2 2 2 2 2 2 2 2 2 2 2 2 2 2 2 2 2 2 2 2 2 2 2 2 2 2 2 2 2 2 2 2 2 2 2 2 2 2 2 2 2 2 2 2 2 2 2 2 2 2 2 2 2 2 2 2 2 2 2 2 2 2 2 2 2 2 2 2 2 2 2 2 2 2 2 2 2 2 2 2 2 2 2 2 2 2 2 2 2 2 2 2 2 2 2 2 2 2 2 2 2 2 2 2 2 2 2 2 2 2 2 2 2 2 2 2 2 2 2 2 2 2 2 2 2 2 2 2 2 2 2 2 2 2 2 2 2 2 2 2 2 2 2 2 2 2 2 2 2 2 2 2 2 2 2 2 2 2 2 2 2 2 2 2 2
left_child=1 7 4 13 12 11 10 21 18 17 16 34 28 24 26 22 33 27 42 37 71 55 39 45 49 202 36 44 41 60 65 46 74 38 56 43 137 94 48 78 -24 69 93 119 90 64 84 108 57 98 136 73 87 131 129 243 75 140 114 168 85 62 103 141 134 154 135 126 166 150 -33 130 211 -23 99 180 113 179 125 -80 117 120 110 217 95 -18 106 122 121 157 189 153 178 116 184 133 -46 -58 -3 -16 185 111 -54 199 105 112 -36 138 -19 196 -48 238 -50 -43 203 -77 159 -21 -57 127 -34 205 155 -92 -72 207 -26 -10 -129 204 -14 172 -68 144 139 -59 -45 218 -108 149 169 -47 143 -28 146 -146 -20 -117 -137 -12 -2 -152 -103 -37 -15 -17 -62 240 -42 160 246 -31 -81 -76 -106 -53 191 -75 226 170 -7 186 -29 -166 -55 222 -111 212 -87 -63 -4 -182 -119 -99 -9 -101 -171 -78 -189 -5 -191 -44 -94 -148 245 -91 224 236 -88 -22 -109 -49 -13 -27 -30 -32 -120 -11 -56 -193 -121 -38 -95 -177 -64 -133 -51 -41 -8 225 -180 -82 -107 -194 -35 -83 -60 -113 -40 -162 -231 -115 -89 -155 -143 -70 -61 -100 -25 -69 -39 242 -86 -1 -169 -134 -6 -135 -98
right_child=2 3 5 9 8 6 14 19 35 15 23 25 20 30 32 52 29 47 31 80 61 51 40 101 67 58 142 53 54 161 88 70 81 109 86 91 72 89 228 83 158 76 68 50 96 63 82 201 104 216 -52 165 102 174 208 118 97 66 59 197 156 77 214 -65 -66 -67 132 239 235 -71 124 -73 -74 167 163 115 187 -79 79 162 221 219 -84 -85 241 92 198 232 -90 195 123 -93 192 177 -96 -97 248 183 237 100 -102 152 -104 -105 164 175 107 200 -110 176 -112 227 -114 231 -116 147 -118 182 206 210 -122 -123 -124 -125 -126 -127 -128 128 -130 -131 -132 215 194 247 -136 148 -138 -139 -140 -141 -142 234 -144 -145 145 -147 193 -149 -150 -151 151 -153 -154 233 -156 -157 -158 -159 -160 -161 229 -163 -164 -165 173 -167 -168 244 -170 171 -172 -173 -174 -175 -176 213 -178 -179 220 -181 181 -183 -184 -185 -186 -187 -188 188 -190 190 -192 209 223 -195 -196 -197 -198 -199 -200 -201 -202 -203 -204 -205 -206 -207 -208 -209 -210 -211 -212 -213 -214 -215 -216 -217 -218 -219 -220 -221 -222 -223 -224 -225 -226 -227 -228 -229 -230 230 -232 -233 -234 -235 -236 -237 -238 -239 -240 -241 -242 -243 -244 -245 -246 -247 -248 -249 -250
leaf_value=-3.5554614746542579 -0.21826384372732949 -3.179863806178465 0.84552333928790002 -1.8619469257685968 -0.43537679901033438 0.20238263086672795 2.6117755750331444 -3.6685427587526345 0.79925121098890839 -0.72932016337413685 2.7273933458158086 -0.60232335714267993 -1.9316703667070034 -1.5164568459228953 2.1055627841137823 -1.5210144881688712 1.1343718467854984 -0.90440244862582253 0.15612013434653493 -2.2451458348857565 -0.77116218826459748 -3.6957404192863645 0.22270340215601028 1.5477504534479918 -2.3073273170697797 0.19563480819919776 2.9909147327183501 -1.8890192299970452 0.17733860743085358 2.5187019315696975 -1.3842100117316416 2.7792385948034024 3.8208210655061148 1.5496009556437442 1.6860379662964076 4.0290578269563602 2.5637437778730381 -2.8238808761526801 1.5897927883929817 0.41257789361910846 1.3641116707746135 -0.89906790243852197 0.59119518075496535 1.935252164972936 -0.91834995247435658 4.3365229664208753 1.5894775208896168 0.67810557118841963 0.93588671656133526 -2.3552263899328509 2.7514389634121255 -2.9622056101003209 -0.61346608142858894 -1.5802778168179943 2.4992200042542256 -4.4360986168485557 1.1536350998513805 0.56015384409644586 0.94612892681208016 0.083197715719969659 2.1616832282106246 0.14839842436133585 -1.0614380778618686 1.9442648814818171 2.7641832131383866 -0.02685424221166241 1.0818407049253937 -0.94982540267251925 0.95992036199725606 0.56291104153340132 0.87718996676130867 -0.62744051395093692 1.8297582104787473 -3.4402917164499076 4.3170838642617468 0.44319728800305597 0.4001437176077568 -0.51988444315401217 -0.61642403364732168 0.24899367003649445 -1.1288624085231715 2.9314513496936314 0.61919897248468136 1.1796192649108475 1.1592873701989308 1.5882146179214001 1.9053779388890104 -0.64713829759322816 -2.2712337934225988 -2.1519804053091725 -1.2257699905298975 1.6367286079162342 0.92408485609890068 -0.21447928295372776 -1.9394852633592561 1.0111607737044026 -0.14954667970104141 1.6720489163648129 -2.7026026624444635 3.9768239430631152 2.7763125318595261 1.1878279873936681 0.23817969534889394 -0.093483413725333003 0.92578922846688272 1.5483080075387914 0.89669002641911644 1.5082151812906304 -0.015436441979167546 1.9066818832897932 0.87147338534445484 2.0043211865474748 1.4862298134287988 -0.39187748978077713 -0.17342254627505216 0.66237300717490022 1.3551626393368963 -1.7182361222057549 -4.1384973944233794 0.17605309870972677 5.1841884231336754 -0.89909163113676915 -0.57051398192005331 -0.50773634077819862 1.7191299997513978 0.010191633993256573 -1.7301212633818506 1.1802992766853595 2.063542533181649 1.1832143389884338 -1.3250426634406169 -1.3509368080416746 1.7611639285908873 0.77697125464897354 1.4926509095218359 1.2756165921384628 1.1151246312602163 0.79357357907934567 2.5974213863913604 1.8229126806613842 0.2302637846060033 2.9499082143990147 2.7319543842130303 4.0390052865913502 0.77358706148731415 0.19696735263266976 0.45402313846811926 1.6875955628540955 0.79235175770166666 2.0698799932127105 0.0039580720229121426 0.81447181621685216 1.9060953080592602 2.5159145288115266 -1.0051793469275483 -1.0556295548874677 3.1731962773775191 -2.243143100062035 2.1934015073809943 0.70771488679628591 0.16474926380291832 3.2596006178691703 0.99175827882892742 3.3809973711690571 1.1483752739169448 -2.1701975647069855 1.0692107877428814 -1.8928012874735385 2.5207448280506561 1.0191164018566778 0.81076683595955767 1.543455611809998 -2.3329275633308 1.8810114738598589 -1.1163749339430977 1.9454016602162374 2.7362724351969527 0.18010734865730132 1.8332876460546299 0.88328214886807932 1.1508087403930538 2.1559459954871185 -0.98034911595863705 2.8284840574576045 -3.0092880972032847 3.2505592029554324 0.41765165067286425 -0.19701011865881973 0.40952875635888797 -1.6694965803060826 -1.1190277584039385 -0.58942469240162887 1.4197912858953761 1.1861882452695645 2.0434440160438405 -1.2659571013569699 1.9470149286315366 -0.54977654157975708 3.0475021958695674 -0.28382576951465222 0.98925744696751239 -0.15050864062455094 -1.286132154355327 0.71442186794073315 1.1159174241885252 -1.8610058598700048 -3.7990007202311618 -0.32246379497225081 1.4002103650650002 0.21951190331517734 1.3407805288987591 3.1075623870876661 -0.77901289737349311 3.5607169604768942 -0.63112715185540069 -2.0064291901100897 -1.9170973331674999 -0.39211434357038677 1.6049040573324245 2.8600582719546317 2.2257707194617269 -0.17197776656847213 2.5864482630949759 2.0278180543441549 0.99970469723607269 4.1834960462850175 1.5841098008696446 2.5491677173943508 1.9836554726413358 -0.013084618888938658 0.87432109892474319 0.12260277714190132 0.072881836956366894 3.241639672221055 3.5918008788374856 1.5937886299013875 0.82824780368130968 -2.2117017596142321 1.9122381343716008 -1.7418587974966453 -2.4103440343816485 1.8401398695513327 0.67803691219741902 -2.8389836140670686 -3.0577638013136466 1.181753556566659 0.039056238233629005 1.6248499438850121 -1.415863971969094
leaf_weight=2045 4954 4352 3380 2853 2082 1881 380 1110 1334 5968 2487 2233 2981 2952 940 3770 3685 3463 9265 2231 4235 11487 2000 5411 3491 3873 1417 7363 2920 3563 2235 870 517 9721 5653 483 3166 5657 4778 1844 1684 2991 1820 4058 5273 530 5208 1983 5289 6545 2677 4579 4123 4680 387 6232 4402 2797 3404 1648 3723 2108 4386 937 4351 1270 2448 2035 3183 8586 1525 1870 2033 4764 1247 9272 2288 2151 2581 3373 1524 252 2859 2038 3849 3228 2756 2389 3909 8399 4368 618 1328 4153 820 4353 3015 900 10258 1335 3287 3938 1769 7771 6958 10527 308 1890 1451 3626 2213 2882 5050 8032 4045 1332 561 3016 9951 857 1654 1138 1935 1929 2658 2532 4879 1712 1814 1215 4468 2651 1887 3767 1639 6531 1214 925 684 3090 1743 1999 1281 1586 9030 3720 3398 950 3912 2744 3997 1662 1483 1239 6217 6417 579 3601 1309 1573 7162 1232 1228 1016 3161 937 797 231 248 6030 6961 1488 3574 1220 4086 436 826 2081 4580 1355 3180 723 1091 508 8825 2071 1466 6760 1492 3121 3093 831 4161 1006 2139 560 2370 661 346 2789 6869 819 1300 2258 510 6768 4956 3742 1656 1785 397 2036 1577 204 3500 1214 2603 787 4402 342 4419 493 325 1170 1242 1308 1025 1718 3544 650 1476 1394 812 1145 1226 1030 849 1476 4032 643 2622 424 2575 827 5444 1695 3677 466 198
leaf_count=2045 4954 4352 3380 2853 2082 1881 380 1110 1334 5968 2487 2233 2981 2952 940 3770 3685 3463 9265 2231 4235 11487 2000 5411 3491 3873 1417 7363 2920 3563 2235 870 517 9721 5653 483 3166 5657 4778 1844 1684 2991 1820 4058 5273 530 5208 1983 5289 6545 2677 4579 4123 4680 387 6232 4402 2797 3404 1648 3723 2108 4386 937 4351 1270 2448 2035 3183 8586 1525 1870 2033 4764 1247 9272 2288 2151 2581 3373 1524 252 2859 2038 3849 3228 2756 2389 3909 8399 4368 618 1328 4153 820 4353 3015 900 10258 1335 3287 3938 1769 7771 6958 10527 308 1890 1451 3626 2213 2882 5050 8032 4045 1332 561 3016 9951 857 1654 1138 1935 1929 2658 2532 4879 1712 1814 1215 4468 2651 1887 3767 1639 6531 1214 925 684 3090 1743 1999 1281 1586 9030 3720 3398 950 3912 2744 3997 1662 1483 1239 6217 6417 579 3601 1309 1573 7162 1232 1228 1016 3161 937 797 231 248 6030 6961 1488 3574 1220 4086 436 826 2081 4580 1355 3180 723 1091 508 8825 2071 1466 6760 1492 3121 3093 831 4161 1006 2139 560 2370 661 346 2789 6869 819 1300 2258 510 6768 4956 3742 1656 1785 397 2036 1577 204 3500 1214 2603 787 4402 342 4419 493 325 1170 1242 1308 1025 1718 3544 650 1476 1394 812 1145 1226 1030 849 1476 4032 643 2622 424 2575 827 5444 1695 3677 466 198
internal_value=-6.26968e-10 -1.88744 1.05262 -1.22125 0.362195 1.55986 1.78851 -3.09883 0.819846 -0.776295 1.58305 0.847415 -0.215689 -1.99324 2.91079 -0.274421 1.43266 -1.23418 0.607176 -2.36404 -0.640954 -3.66933 0.117008 2.09881 -2.33672 0.21346 2.38585 -1.39424 0.111802 1.89219 -1.48435 0.826716 3.55812 1.28751 1.16391 1.93027 2.08276 -2.57565 1.20026 -0.0917457 1.12432 -0.0082944 0.242619 1.71272 -1.08558 2.47274 0.747156 -0.250509 1.13771 -2.58507 2.08487 -3.33517 -0.811075 -1.7066 0.868795 -4.05125 0.920641 0.996221 0.422838 0.75895 1.74643 -0.397842 -0.513572 3.07343 2.2758 -1.03074 1.18376 -1.76947 0.691 0.266751 1.64756 -1.37911 2.51053 -3.46284 3.23004 0.77884 -0.238315 0.0697185 -0.260847 0.0649881 -1.56384 4.35524 1.16506 0.611751 0.644508 1.64133 1.48792 -0.98538 -1.82138 -2.35883 -1.3224 2.80816 1.74025 0.0731487 -2.99576 0.570957 -0.656809 1.38038 -2.78668 3.03235 3.16251 1.73373 -0.35777 -0.323347 1.31251 1.42777 1.3782 1.19973 -0.64191 1.69207 1.37536 1.86861 1.2047 -0.456291 0.164049 0.570783 0.207937 -1.77669 -4.14664 1.22887 4.85952 -1.64798 -1.12293 -1.00581 1.41218 -0.452004 -1.97087 1.40538 1.6347 0.543499 -1.56781 -1.90946 1.51128 0.508442 2.06245 0.981683 1.7464 1.54044 2.06937 2.17469 0.791047 3.3552 3.3015 3.54445 0.450461 0.60535 0.305986 1.08917 1.09458 2.38248 0.0271548 0.241999 1.38432 3.06067 -1.16979 -1.22786 2.29782 -2.55658 1.7268 0.169213 0.112918 2.70906 0.447236 3.89682 1.09062 -2.82767 0.349733 -3.20656 1.16944 0.845879 0.681342 1.00782 -2.03408 1.3524 -1.36404 1.62846 2.0606 -0.22333 1.91044 0.435943 1.10891 1.337 -1.52222 2.08929 -3.08294 3.53522 0.901487 0.0184779 -0.0873451 -1.54227 -1.3955 0.220467 1.42776 0.621271 1.69504 -2.0966 1.56902 0.15101 2.03277 -0.577657 1.10124 0.435909 -0.853937 0.3867 0.316894 -1.74264 -4.02563 -0.572528 1.60839 -0.0374553 0.544791 2.77659 -0.369849 2.46028 -0.870456 -1.55683 -2.23056 0.171874 1.68491 3.77964 2.02602 -0.894978 1.5794 1.55324 1.4873 3.98124 1.09378 2.20781 1.75752 0.265065 0.603007 -0.315792 -0.46449 2.86447 3.19393 1.11489 0.336521 -2.64085 1.70338 -1.14 -2.69291 1.02048 0.966383 -3.34915 -3.01034 1.48699 -0.132461 0.870312 -0.227583
internal_weight=719520 257608 461912 166206 195630 266282 201585 91402 109172 105435 170390 64697 86458 60771 31195 50301 131923 55134 91624 39949 37614 51453 29086 38467 36282 21544 17226 47418 48844 31668 24489 57186 13969 100255 43153 17548 12942 31594 82470 24093 4993 42156 34438 14063 23850 19003 52133 7716 74148 25234 7949 27442 21215 23568 6688 24011 24647 40978 18011 7835 26873 28295 22681 4692 14311 10439 21409 11048 9446 19199 5053 9319 7235 21926 9896 18837 22957 5614 19424 7182 8355 4073 10280 4669 41853 22571 18506 15323 14050 20839 15364 3485 18886 24992 10755 35005 8486 5810 16086 7633 6693 19464 5892 14795 33170 21831 15404 9751 4914 17785 7421 14043 10339 12417 10176 11554 17181 6338 21139 6114 2171 10141 12122 6297 4183 12242 8370 4860 3526 4645 7449 14802 8169 30652 9960 13240 5272 5707 992 8321 19569 3755 4284 3003 26419 12750 13669 2282 10443 5231 10613 5659 5421 2867 9169 10187 4302 11880 2993 16620 15047 4795 4601 2263 11339 5516 5233 10439 4677 17826 8842 8984 10937 4381 8766 11492 4452 7811 12227 3463 7283 3903 4107 1408 9935 3406 7496 10540 8252 9067 6214 4436 6659 4404 5721 8959 13333 3158 3102 7024 8759 2802 3533 6131 3430 9003 14907 9710 2043 2616 1254 5202 5730 640 7886 3865 9148 2631 4782 1902 8999 2017 10852 5331 10963 1560 4429 4600 8322 9288 2126 9426 3201 2384 3225 4213 2497 11734 9443 2678 8279 6848 6424 2872 5675 3582 5759 4233 3213
internal_count=719520 257608 461912 166206 195630 266282 201585 91402 109172 105435 170390 64697 86458 60771 31195 50301 131923 55134 91624 39949 37614 51453 29086 38467 36282 21544 17226 47418 48844 31668 24489 57186 13969 100255 43153 17548 12942 31594 82470 24093 4993 42156 34438 14063 23850 19003 52133 7716 74148 25234 7949 27442 21215 23568 6688 24011 24647 40978 18011 7835 26873 28295 22681 4692 14311 10439 21409 11048 9446 19199 5053 9319 7235 21926 9896 18837 22957 5614 19424 7182 8355 4073 10280 4669 41853 22571 18506 15323 14050 20839 15364 3485 18886 24992 10755 35005 8486 5810 16086 7633 6693 19464 5892 14795 33170 21831 15404 9751 4914 17785 7421 14043 10339 12417 10176 11554 17181 6338 21139 6114 2171 10141 12122 6297 4183 12242 8370 4860 3526 4645 7449 14802 8169 30652 9960 13240 5272 5707 992 8321 19569 3755 4284 3003 26419 12750 13669 2282 10443 5231 10613 5659 5421 2867 9169 10187 4302 11880 2993 16620 15047 4795 4601 2263 11339 5516 5233 10439 4677 17826 8842 8984 10937 4381 8766 11492 4452 7811 12227 3463 7283 3903 4107 1408 9935 3406 7496 10540 8252 9067 6214 4436 6659 4404 5721 8959 13333 3158 3102 7024 8759 2802 3533 6131 3430 9003 14907 9710 2043 2616 1254 5202 5730 640 7886 3865 9148 2631 4782 1902 8999 2017 10852 5331 10963 1560 4429 4600 8322 9288 2126 9426 3201 2384 3225 4213 2497 11734 9443 2678 8279 6848 6424 2872 5675 3582 5759 4233 3213
is_linear=0
shrinkage=0.1


Tree=3
num_leaves=250
num_cat=0
split_feature=112 112 55 127 17 127 112 112 17 55 19 89 40 19 89 131 17 112 4 40 17 21 17 73 112 112 55 112 131 17 17 18 131 40 19 73 131 22 40 17 76 22 117 73 23 76 73 112 89 17 73 19 112 17 20 17 125 143 40 21 73 73 117 89 112 73 88 40 7 73 17 117 73 4 17 21 76 1 112 114 112 4 131 6 89 40 4 125 112 112 16 122 17 89 17 16 22 112 37 17 73 40 89 5 112 131 79 112 131 124 91 17 112 79 19 14 25 122 125 76 19 131 89 16 122 89 21 76 73 125 93 112 94 76 1 22 112 17 19 117 112 22 21 94 76 55 117 111 73 18 89 40 89 76 89 90 20 40 89 94 111 40 82 59 128 14 22 19 3 4 89 111 89 73 96 124 4 4 91 124 4 76 79 23 1 40 112 40 92 86 16 122 130 90 16 89 0 40 129 18 57 19 22 40 76 131 53 4 18 4 19 125 124 21 73 124 112 125 115 126 109 25 113 10 112 131 116 79 0 73 4 14 130 89 18 1 92 21 73 143 89 40 73 79 7 18 40 76 125
split_gain=1.15811e+08 2.29841e+07 9.52561e+06 5.0162e+06 4.73285e+06 4.34529e+06 2.44137e+06 2.23977e+06 1.97718e+06 1.74185e+06 1.43887e+06 1.26298e+06 1.08228e+06 1.0075e+06 934645 763891 669175 652875 597996 588277 516521 513408 508287 454652 435367 400607 399771 396575 383452 345887 318708 302947 283109 272708 255321 246260 238379 237665 236455 210633 199714 195828 191988 191293 190406 177096 194790 172234 171617 164573 158373 209642 153118 152524 158714 146875 144075 142723 141341 138238 137971 137075 127658 127564 127018 126024 125708 120821 117164 116485 114822 113142 117586 112502 104879 104418 101649 101368 100840 99513.5 99393.4 98298.7 92702.8 89807.3 87949.4 85140.4 84422.8 101988 84378.8 83377.6 81696.2 81427.9 80908.8 80873.5 80291.4 79426.7 77002.9 76875.1 76623.7 76040.9 73551.6 73218.8 72052.6 71174.4 68135.7 67738.1 66702.8 78776.6 66003.3 62759 62334 62110.5 62035.7 61631.6 61110 60717.6 59463.4 59442.2 65646.1 62538.4 59403.5 73450.7 58912.1 58336.1 57871.7 55499.2 54064.4 53065.8 52949.1 52817.1 54853.7 52327.5 52250.4 51934.6 51366.3 51026.4 50781 50114.7 49818.2 49651.1 48797.7 48690.6 48622.1 48074.3 46995.4 46683.1 46499.1 45861.7 45819.8 45669.4 44938.2 43743.7 42915.5 42697.4 45149.1 42563.3 41352.7 41205.4 41150 40803.7 40691.9 40407.2 40171 39901.2 39588.6 39271.6 46252 39190.6 39155.8 38875 40581.3 38653.2 38611.4 38436.2 38268.1 37789.9 37484 37290.3 37209.8 37183.9 37038.3 44157.7 37018.7 37014.2 36962.5 36701.5 36268.1 36265.9 36128.5 35861.3 35466 34900.4 34792.9 34611 34321.7 34188.2 34149 33935.3 70315.6 33644.4 33564.1 33517 33075.6 32812.7 32645.5 32415.2 31897.6 31841.8 31816.1 42661.5 31769.2 31422.5 31322.6 31311.5 30982.7 30956.8 30890.1 30697.9 30662.5 30479.1 30418.2 30314 30052.7 29967.3 29507.2 29462.6 29252.6 29016.3 28168.4 30066.5 27719.1 27386.8 27324 27311.5 27185.7 27034.3 26582 26524.3 26405.3 25605.3 25530 31364.4 25496.5 25367.9 25329.3 25307.7 25304.6 25129.2 25066
threshold=109.50000000000001 134.50000000000003 2.5000000000000004 2.5000000000000004 78.918441772460952 2.5000000000000004 88.500000000000014 79.500000000000014 55.469797134399421 2.5000000000000004 2.5000000000000004 66.219184875488295 271.50000000000006 2.5000000000000004 28.996960639953617 58.500000000000007 84.859966278076186 142.50000000000003 55.500000000000007 251.50000000000003 25.243764877319339 16.51834869384766 60.171148300170906 28.419272422790531 147.50000000000003 97.500000000000014 2.5000000000000004 122.50000000000001 49.500000000000007 110.72237777709962 50.105760574340827 10.541385173797609 59.500000000000007 184.50000000000003 1.5000000000000002 28.809422492980961 26.500000000000004 27.000000000000004 264.50000000000006 33.425376892089851 74.500000000000014 49.000000000000007 6.5331027507781991 102.28944396972658 20.500000000000004 110.50000000000001 31.959012031555179 80.500000000000014 54.807052612304695 24.605569839477543 60.518714904785163 1.5000000000000002 146.50000000000003 47.587182998657234 18.500000000000004 38.703104019165046 121.41429519653322 0.25378875434398657 288.50000000000006 41.682531356811531 30.217860221862797 14.83709239959717 9.6471605300903338 43.318099975585945 121.50000000000001 60.922084808349616 63.230573654174812 186.50000000000003 15.45495128631592 85.408802032470717 31.979916572570804 25.702381134033207 31.959012031555179 67.500000000000014 123.15748977661134 26.041769027709964 102.50000000000001 16.372295379638675 143.50000000000003 33.500000000000007 148.50000000000003 17.500000000000004 64.500000000000014 12.500000000000002 33.548704147338874 145.50000000000003 61.500000000000007 27.962576866149906 129.50000000000003 79.500000000000014 33.463401794433601 17.873877525329593 142.59502410888675 62.753572463989265 24.605569839477543 33.814521789550788 29.000000000000004 143.50000000000003 56.64984321594239 37.55333328247071 18.819169998168949 280.50000000000006 41.217391967773445 1.7710375785827639 122.50000000000001 43.500000000000007 10.303465366363527 116.50000000000001 39.500000000000007 29.284743309021 1.5000000000000002 54.358196258544929 101.50000000000001 12.872282505035402 1.0000000180025095e-35 4.3335065841674814 3.5000000000000004 15.959830760955812 57.863307952880866 108.50000000000001 2.5000000000000004 54.500000000000007 23.291163444519047 116.84449005126955 18.488888740539554 73.89853668212892 17.080393791198734 109.50000000000001 29.142855644226078 48.750036239624031 52.974359512329109 150.50000000000003 67.000000000000014 100.50000000000001 20.858689308166507 17.000000000000004 95.500000000000014 103.54738616943361 2.5000000000000004 24.578230857849125 144.50000000000003 31.000000000000004 9.5120067596435565 55.000000000000007 139.50000000000003 2.5000000000000004 23.619259834289554 22.500000000000004 32.823753356933601 13.691704750061037 49.636447906494148 167.50000000000003 84.340053558349624 107.50000000000001 61.847824096679695 10.503968238830568 13.500000000000002 196.50000000000003 19.1217794418335 39.000000000000007 15.500000000000002 240.50000000000003 0.24820107221603396 38.500000000000007 40.500000000000007 14.491351604461672 15.000000000000002 1.5000000000000002 10.500000000000002 30.500000000000004 50.524780273437507 21.500000000000004 11.709935188293459 13.879795551300051 6.8750000000000009 43.194272994995124 95.500000000000014 83.500000000000014 1.5000000000000002 175.04404449462893 68.500000000000014 104.50000000000001 9.0749998092651385 35.500000000000007 72.02579498291017 126.50000000000001 97.500000000000014 291.50000000000006 19.500000000000004 10.511111259460451 129.49579620361331 12.279513835906984 93.000000000000014 16.468668937683109 61.204160690307624 98.807846069335952 1.5000000000000002 241.50000000000003 58.886201858520515 10.664994239807131 107.53928375244142 2.5000000000000004 13.000000000000002 241.50000000000003 110.50000000000001 67.500000000000014 68.012268066406264 79.500000000000014 2.7247235774993901 82.500000000000014 1.5000000000000002 25.296323776245121 178.77038574218753 16.800253868103031 13.879795551300051 30.326725006103519 72.500000000000014 100.98035812377931 11.718254089355471 16.169157981872562 74.748130798339858 14.500000000000002 3.1846591234207158 0.074190746992826476 143.50000000000003 44.500000000000007 6.5000000000000009 10.891252994537355 1.5000000000000002 26.684248924255375 74.500000000000014 4.4997675418853769 73.000000000000014 51.927881240844734 3.0288419723510747 53.146062850952156 14.500000000000002 28.124108314514164 60.518714904785163 0.42061491310596472 75.856552124023452 224.50000000000003 134.24442291259768 10.494444370269777 9.0590066909790057 13.691704750061037 262.50000000000006 131.50000000000003 174.49677276611331
decision_type=2 2 2 2 2 2 2 2 2 2 2 2 2 2 2 2 2 2 2 2 2 2 2 2 2 2 2 2 2 2 2 2 2 2 2 2 2 2 2 2 2 2 2 2 2 2 2 2 2 2 2 2 2 2 2 2 2 2 2 2 2 2 2 2 2 2 2 2 2 2 2 2 2 2 2 2 2 2 2 2 2 2 2 2 2 2 2 2 2 2 2 2 2 2 2 2 2 2 2 2 2 2 2 2 2 2 2 2 2 2 2 2 2 2 2 2 2 2 2 2 2 2 2 2 2 2 2 2 2 2 2 2 2 2 2 2 2 2 2 2 2 2 2 2 2 2 2 2 2 2 2 2 2 2 2 2 2 2 2 2 2 2 2 2 2 2 2 2 2 2 2 2 2 2 2 2 2 2 2 2 2 2 2 2 2 2 2 2 2 2 2 2 2 2 2 2 2 2 2 2 2 2 2 2 2 2 2 2 2 2 2 2 2 2 2 2 2 2 2 2 2 2 2 2 2 2 2 2 2 2 2 2 2 2 2 2 2 2 2 2 2 2 2 2 2 2 2 2 2
left_child=2 5 7 11 10 9 20 36 28 18 12 17 24 19 22 16 27 71 62 59 47 44 34 39 32 57 190 42 64 37 104 65 53 63 67 68 77 60 78 52 172 97 125 144 58 46 114 100 157 82 51 168 178 54 98 109 171 99 90 135 120 89 83 112 94 101 139 105 123 88 136 72 -3 -20 108 187 245 163 195 221 102 149 86 -2 210 -63 87 -30 180 -22 142 194 233 116 156 174 124 243 -5 -9 216 167 141 201 -17 215 189 -108 -18 183 115 225 151 196 164 173 228 118 191 -119 121 132 -78 188 -55 -11 -121 -39 -87 -60 222 -53 -10 200 -69 -6 -36 -32 -96 155 -104 -25 -14 158 193 207 -57 -46 212 -33 -58 -16 -80 -62 -155 -27 211 -35 -42 176 242 230 -64 -1 217 166 -83 -21 206 -82 -171 220 -24 -54 -38 -107 -116 231 214 237 181 238 -99 -34 -163 -102 -65 223 -15 -44 -13 -100 -115 -40 -92 203 218 198 236 -147 -73 -51 -110 -28 -89 -105 -26 -81 -56 -210 -49 -7 -137 -120 -12 -8 -4 -19 -111 -208 -47 -48 -131 -23 -125 -59 -198 -204 -66 -230 -74 -98 -84 -37 -158 -135 -90 -103 -29 -97 241 -109 -45 -41 -164 -31 -70 -152 -61
right_child=1 3 6 4 13 8 14 25 29 15 23 26 21 35 33 30 74 45 73 31 61 75 40 80 50 66 38 69 49 76 137 81 55 48 70 92 95 127 43 41 143 -43 106 160 147 56 79 84 -50 103 -52 131 110 96 208 146 150 111 129 248 153 85 162 186 93 -67 -68 134 246 -71 -72 133 161 -75 -76 -77 122 -79 152 145 169 165 232 -85 -86 128 -88 204 197 -91 91 -93 -94 -95 138 239 177 182 117 -101 185 179 140 205 -106 175 107 240 202 113 -112 -113 -114 192 159 -117 -118 119 213 126 -122 -123 -124 224 -126 -127 -128 -129 -130 130 -132 -133 -134 235 -136 148 -138 -139 -140 -141 -142 -143 -144 -145 -146 199 -148 -149 -150 -151 247 -153 -154 154 -156 -157 234 -159 -160 -161 -162 184 244 -165 -166 -167 -168 -169 -170 170 -172 -173 -174 -175 -176 -177 -178 -179 -180 -181 -182 -183 -184 -185 -186 -187 -188 -189 -190 -191 -192 -193 -194 -195 -196 -197 226 -199 -200 -201 -202 -203 227 -205 -206 -207 219 -209 209 -211 -212 -213 -214 -215 -216 -217 -218 -219 -220 -221 -222 -223 -224 -225 -226 -227 -228 -229 229 -231 -232 -233 -234 -235 -236 -237 -238 -239 -240 -241 -242 -243 -244 -245 -246 -247 -248 -249 -250
leaf_value=-4.1268304966497737 -2.0159098107805913 0.66031144958067378 -2.6144035266980037 0.077609153302176104 2.2628072998252344 -1.3663428604879844 -1.8400377381672914 -3.1942825749095212 0.85665523444506819 -1.0346172455943614 2.280647214888885 -1.033889709812517 0.88347228179280435 1.7910956711769104 -1.8786476123723472 -0.12433045196179521 -0.35788376506735231 0.64364805188930241 -0.80624260229640954 1.9187698047906334 -1.578805892107231 1.8371790213754071 -0.16638849815088419 1.9645887034285743 0.64019791992633324 -1.751234963315929 -0.38980739855192459 -0.43223503941834274 -0.57041824441948863 1.2519702470114851 1.1169575426058171 3.3251776126550263 0.24211331183489737 -1.0980701568758915 -1.1743758436983716 2.7893774706559484 -3.2222683185029903 0.21600017977712313 1.3615623671843728 2.8187454767759683 0.42803111418546236 1.6233415715689912 -0.33991379875938404 0.033018727127040008 1.8036545157052517 0.24737265752277851 1.1690501766814942 -2.0493350655372073 -1.7144984789545683 0.45817014205881978 0.80477195590127426 1.4071054450824845 3.4346071019346418 1.5855888551839905 1.4097845412748347 1.4282050237332484 2.7346228321384225 -2.6150303917193884 1.1211845916019816 2.1226905616266385 0.42439746249725929 -2.3603721505267612 -0.66852898479014711 -2.3124878082368836 -0.098423014210846788 1.6864140705220139 -2.52304972467293 -1.1383690112018028 4.026093341844124 -0.87374937197708091 -0.15732210003344962 1.0023155814992859 -0.044937119817825708 -0.11438623992726207 0.80850512811663922 2.8121408147164133 2.9675613287560814 -3.4053092365133959 0.47792476107851734 0.043761765372590161 2.3974687646571047 3.709596925462995 0.63397384138973711 -1.434424394720013 -2.5495659346012092 -1.4361852948887557 0.54729400939485084 0.055770275730222231 0.54183044646458978 -0.70980036715688177 1.5561270566889425 1.1003532866096641 3.5525336799211082 -0.4564354656361207 -0.14874029215943294 -2.9520190743391148 1.4407476603378577 3.8025064437052083 1.0693809871775652 -2.6843425250098694 -3.2880806274195806 2.4538506425056141 0.71174704154066337 0.92863993351211893 0.3736385366605306 -1.2564957734791937 -0.96108494465236793 -0.53112596358891906 0.91748033234320769 0.37657962456518113 1.6053388101692694 -2.0596422656000821 -1.2756338913648471 0.7867791862429484 1.3082761961941924 1.9144813538512642 0.38153145501257257 0.2873269404295033 0.95856493458883019 0.59117928023393274 1.9046625164126327 1.8127429484311453 1.9999090994185149 3.5596690723050024 0.93395797154105353 -1.6119981384605311 1.4713898700960211 1.798517912074858 -2.192078430165934 1.620414198500183 1.3651243608349353 1.7275840905533884 1.5864499904513258 1.024643955612266 -0.44482247746503933 1.3844922436579152 -0.64311049364811157 2.1373341190795236 0.56123886225348596 -1.4540096853140045 1.2913798960209664 1.3836356207150398 1.3044996787147416 0.67432894416826761 1.53847866624149 0.65622491645376246 2.0659691503679656 2.4964113493213342 0.88255336508809834 4.2330833105509642 1.5332539762634794 -1.4750391461953161 -0.046103352904936404 1.226927054026749 0.28744370795061208 -2.1674580362445628 0.066893325637528908 -0.6567181401666935 -0.36180659406463467 2.1722713732629306 0.63552320767255244 0.20519904538895442 -1.4287991710120695 -3.7623085499273397 1.8957830890499314 3.4837373805461129 2.3303184743001979 2.437282243520059 1.4807489966288225 1.8253882057016009 1.290132325583542 1.772575920009311 -1.0399491046354892 2.4948545597693257 -3.6579749065281497 -0.68810306931114096 1.8535752368885612 1.2515314225887353 1.0936530985624211 3.2487629866184196 0.07497744223600282 -0.034963823973278012 2.9942123165012013 1.0717975860226896 1.1661260797059558 -2.7499001649345414 -1.8817804578930772 2.3639941015664001 3.4023827832840485 0.59991544752607229 -0.44013212303301724 0.51398513552519665 2.207562686095025 0.68826770535513038 2.203836007273305 -0.66574274413887846 1.8749219281394105 0.42405773295574367 -0.48480379419197406 1.041910449627693 0.17606222430946558 1.0168730734645024 0.44967053807857965 0.10202269063960419 0.4703469581194199 1.6412633676189536 1.3144943031104246 0.7595934712753345 0.7761461846388108 1.2785062909794924 -1.5015368802608471 -0.54607953516364105 2.1478640501616435 1.8907268307603819 1.628327815790533 -1.3993539584622399 -2.1260395423974119 1.1829237765446254 1.1898056075208092 0.94254098205239656 1.1844040808709957 2.0594048445084514 2.0459542666589603 2.6029405852432363 4.3479690901801407 -2.0011624322178259 1.3079538241657387 0.0021195421745379768 0.54582761286913373 0.036419552636679904 0.41923662606612555 0.63888800634393472 1.4338206924155892 2.1200984750133363 -0.60113035550095006 2.0482170451002109 0.020743047654973982 3.3134556814852054 -0.84103067052957836 -2.3402900741924109 -1.0275390773061419 0.028306114172169574 -0.66143673811064563 2.1594340238417109 -0.96687952418677592 2.0382749048289877 5.1261990526527361 2.4125237636148875 2.9740070675701658
leaf_weight=4241 5676 6926 2609 2987 633 511 1911 5907 2978 8183 836 2766 8747 150 6304 4816 2226 1498 7041 2399 2382 5538 702 2117 2054 4423 3033 7886 2321 1270 2370 2535 1400 5317 2883 2361 9469 3184 947 985 1301 1650 2795 2283 2752 518 3815 7344 3964 6455 5783 9804 494 3520 1756 2917 1091 11865 1901 826 1713 2456 1191 3419 7181 2736 4197 1893 285 2874 3586 1389 7044 3528 2874 2190 1244 6992 3571 1600 888 280 2235 4992 3775 3511 4168 7005 1252 2058 3151 4113 1301 2323 4063 2004 467 721 1311 5791 1573 2371 2155 3222 6398 2901 6613 6682 708 519 1199 2872 4796 4646 4501 1824 7866 8347 5056 4853 2457 2118 1273 775 2224 2090 815 227 1259 2947 3352 10607 1463 483 2450 4523 4786 604 1306 2165 4455 4529 3996 2036 1114 6172 1880 1464 1749 709 838 4678 2779 2597 637 5527 1881 3513 1338 926 913 1042 4398 10286 580 517 1846 3715 1962 6023 1852 690 1812 3658 2561 1960 1751 1667 1143 1204 1719 2389 2646 873 650 6517 4566 2440 1925 475 1581 8260 179 3940 1105 1862 1355 1719 2695 3570 761 1288 2538 2454 2606 796 3411 1016 5238 2496 1237 5426 610 388 5642 9611 2572 3574 4347 6221 1046 425 3799 563 1226 837 2771 3375 1743 3456 1574 4844 528 822 901 554 4489 423 1976 1039 839 1179 688 1432 1626 604 785 531 595
leaf_count=4241 5676 6926 2609 2987 633 511 1911 5907 2978 8183 836 2766 8747 150 6304 4816 2226 1498 7041 2399 2382 5538 702 2117 2054 4423 3033 7886 2321 1270 2370 2535 1400 5317 2883 2361 9469 3184 947 985 1301 1650 2795 2283 2752 518 3815 7344 3964 6455 5783 9804 494 3520 1756 2917 1091 11865 1901 826 1713 2456 1191 3419 7181 2736 4197 1893 285 2874 3586 1389 7044 3528 2874 2190 1244 6992 3571 1600 888 280 2235 4992 3775 3511 4168 7005 1252 2058 3151 4113 1301 2323 4063 2004 467 721 1311 5791 1573 2371 2155 3222 6398 2901 6613 6682 708 519 1199 2872 4796 4646 4501 1824 7866 8347 5056 4853 2457 2118 1273 775 2224 2090 815 227 1259 2947 3352 10607 1463 483 2450 4523 4786 604 1306 2165 4455 4529 3996 2036 1114 6172 1880 1464 1749 709 838 4678 2779 2597 637 5527 1881 3513 1338 926 913 1042 4398 10286 580 517 1846 3715 1962 6023 1852 690 1812 3658 2561 1960 1751 1667 1143 1204 1719 2389 2646 873 650 6517 4566 2440 1925 475 1581 8260 179 3940 1105 1862 1355 1719 2695 3570 761 1288 2538 2454 2606 796 3411 1016 5238 2496 1237 5426 610 388 5642 9611 2572 3574 4347 6221 1046 425 3799 563 1226 837 2771 3375 1743 3456 1574 4844 528 822 901 554 4489 423 1976 1039 839 1179 688 1432 1626 604 785 531 595
internal_value=-1.77138e-09 0.768645 -2.09402 1.28445 1.5119 -0.077979 -1.50261 -2.92771 0.441553 -0.497721 1.32528 0.610148 1.18801 2.54887 -1.17645 -0.263213 -0.403268 0.89009 -1.17164 2.24228 -2.1649 1.58652 -0.837052 1.831 1.02141 -2.44341 0.0632634 -0.547421 0.173544 1.27004 0.403856 2.56071 0.87968 -1.5401 -1.00784 3.42984 -3.50454 1.06963 0.225687 2.15002 -0.0772691 2.58429 -0.805164 0.598441 1.41127 1.15762 1.06647 -2.416 -1.16787 0.434734 1.28862 1.37078 1.93183 0.759195 0.666347 1.1925 1.72666 -2.67788 1.33068 1.57465 1.25243 -1.61331 -1.52408 -1.74051 -0.0446594 2.28852 -2.0514 -1.21606 3.90189 -0.27195 -0.624417 0.442847 0.341637 -0.575297 0.283678 2.19611 2.063 -3.71815 -0.0432869 0.840269 1.50893 3.15477 0.251687 -1.74381 -2.14732 -1.882 0.159849 0.0245101 -0.200258 -1.17601 1.17492 1.41765 2.88811 0.10241 -0.280265 -3.19957 1.06212 2.85841 0.559887 -2.94184 -2.66614 2.45143 1.33618 0.728318 0.159779 -1.34037 -0.613382 -0.700932 0.113185 1.0477 2.26337 -2.47962 -1.57569 1.12781 1.3591 2.3954 0.166531 0.60951 0.747758 0.461398 1.48528 1.32817 2.47816 3.65741 1.33329 -1.15208 0.717744 0.321316 -1.6357 1.60473 1.69577 1.57365 1.09707 0.990215 -0.747121 1.40362 -0.842829 1.32419 0.0239609 -1.88801 1.10241 1.56869 1.0155 0.309242 0.952348 0.696845 1.67815 2.04421 1.32459 3.52361 2.25585 -1.70672 0.24859 0.828062 1.04188 -1.98244 -0.467602 -0.922479 0.0275753 1.55276 0.0516339 0.12756 -1.1992 -3.86873 1.11315 2.70206 2.51197 2.23383 1.06737 1.77024 1.69951 1.14911 -0.796019 2.60667 -3.31502 -1.02731 1.461 0.838909 1.61969 2.78419 -0.359708 -0.420701 3.1673 0.560773 0.57435 -2.85454 -2.0662 2.03816 3.2859 -0.203394 -0.817941 0.590061 0.839488 0.818738 1.72429 -0.295487 1.28252 0.0190937 -0.0634257 0.797561 0.70986 0.551107 0.271559 -0.169842 0.168182 1.06982 0.997968 0.321776 1.02552 0.938273 -1.97037 -0.61668 1.47521 1.025 1.71251 -1.47244 -2.37197 1.02365 1.10307 1.07426 0.874057 1.2583 1.86006 1.90784 4.04266 -2.57458 1.49415 0.194219 0.0299247 0.207202 0.03984 0.709396 0.786822 2.61654 -0.149458 1.57147 0.134382 2.58399 -0.514143 -2.74315 -0.503186 -0.447222 -0.127798 2.42812 -1.30412 1.5054 4.83318 1.8743 2.47915
internal_weight=719520 526324 193196 327062 244566 199262 113020 80176 89046 110216 207265 82496 163016 37301 75727 81764 67576 54565 28452 27671 37293 48058 39170 44249 114958 43584 27931 55855 67281 21765 14188 18735 75116 36557 31981 9630 36592 17374 23584 22230 7189 7434 28856 9885 37327 34142 29428 25627 12794 30624 39842 34059 14796 54229 41507 20887 4714 27272 33111 8936 13963 11666 17883 23763 36657 12848 16312 20726 5146 26999 11255 20423 17236 10569 11721 10731 4391 21519 13699 16598 22019 5887 18863 10668 12356 7226 16100 11932 24125 4440 21112 8369 4484 22569 14088 15073 12722 5784 32017 11698 13271 10112 13256 11761 11214 16383 18583 15313 8847 16090 7175 15574 15778 13817 12830 5976 20246 29030 15015 14015 9016 6559 2517 4076 5744 10273 5668 3411 4770 11999 10098 20411 4441 3187 4343 7515 7669 2974 5369 12115 6610 6646 12743 4675 6001 12358 4797 4216 6882 3244 2460 10982 6350 4947 3234 9950 8719 8830 2639 7178 3884 10310 7215 14527 5652 2643 2126 6114 13648 8763 7875 2254 2514 4152 12030 4861 6252 6978 7621 3998 13970 12251 3367 2273 1692 8090 7985 8541 2075 3270 4347 9571 4825 4887 4256 7349 8992 10155 8436 9742 2150 7743 6621 5487 9611 4018 11686 2616 9490 7734 8581 5937 5133 5444 6478 11522 5181 5072 4866 9632 1564 4240 6746 6101 2001 12702 4126 5913 12380 5199 8618 5311 2763 3183 2782 1037 5741 2794 9862 3043 8700 7861 2971 2417 6024 1874 1070 1369 1421
internal_count=719520 526324 193196 327062 244566 199262 113020 80176 89046 110216 207265 82496 163016 37301 75727 81764 67576 54565 28452 27671 37293 48058 39170 44249 114958 43584 27931 55855 67281 21765 14188 18735 75116 36557 31981 9630 36592 17374 23584 22230 7189 7434 28856 9885 37327 34142 29428 25627 12794 30624 39842 34059 14796 54229 41507 20887 4714 27272 33111 8936 13963 11666 17883 23763 36657 12848 16312 20726 5146 26999 11255 20423 17236 10569 11721 10731 4391 21519 13699 16598 22019 5887 18863 10668 12356 7226 16100 11932 24125 4440 21112 8369 4484 22569 14088 15073 12722 5784 32017 11698 13271 10112 13256 11761 11214 16383 18583 15313 8847 16090 7175 15574 15778 13817 12830 5976 20246 29030 15015 14015 9016 6559 2517 4076 5744 10273 5668 3411 4770 11999 10098 20411 4441 3187 4343 7515 7669 2974 5369 12115 6610 6646 12743 4675 6001 12358 4797 4216 6882 3244 2460 10982 6350 4947 3234 9950 8719 8830 2639 7178 3884 10310 7215 14527 5652 2643 2126 6114 13648 8763 7875 2254 2514 4152 12030 4861 6252 6978 7621 3998 13970 12251 3367 2273 1692 8090 7985 8541 2075 3270 4347 9571 4825 4887 4256 7349 8992 10155 8436 9742 2150 7743 6621 5487 9611 4018 11686 2616 9490 7734 8581 5937 5133 5444 6478 11522 5181 5072 4866 9632 1564 4240 6746 6101 2001 12702 4126 5913 12380 5199 8618 5311 2763 3183 2782 1037 5741 2794 9862 3043 8700 7861 2971 2417 6024 1874 1070 1369 1421
is_linear=0
shrinkage=0.1


Tree=4
num_leaves=250
num_cat=0
split_feature=112 112 112 127 127 55 127 17 17 112 17 89 89 40 17 55 89 55 112 17 17 112 55 73 112 17 17 19 124 73 40 40 131 131 112 55 19 0 76 111 17 40 112 143 17 21 129 111 131 76 40 19 73 78 17 17 17 131 143 21 89 17 76 17 112 131 94 93 90 73 127 4 111 7 89 73 89 90 0 94 127 76 112 21 40 40 112 89 88 19 94 73 22 90 19 89 125 21 127 3 35 112 117 22 76 40 131 23 122 73 0 117 112 111 16 35 131 131 88 131 89 111 131 112 78 112 76 40 3 59 131 40 4 114 94 91 94 88 138 76 55 21 124 7 124 91 19 112 112 17 124 88 79 94 124 16 111 21 17 79 17 113 131 73 17 112 91 112 21 1 73 88 21 112 73 73 93 88 112 89 125 50 126 112 125 17 106 17 76 76 21 122 91 17 117 17 73 90 40 94 131 86 93 76 73 58 17 131 40 93 4 88 88 6 107 118 129 93 122 79 88 17 143 93 78 4 76 124 89 129 112 112 138 125 126 130 76 107 17 78 90 79 129 143 143 131 93 17 17
split_gain=9.39573e+07 1.36902e+07 1.07445e+07 3.77489e+06 3.60994e+06 2.79159e+06 2.6989e+06 2.36313e+06 1.95536e+06 1.65435e+06 1.22648e+06 1.20996e+06 881963 794709 815315 697955 656928 558527 531683 501767 491967 487272 471930 406882 365039 336420 292046 283138 334277 304807 278702 263011 252082 250501 237128 214062 204299 197357 191134 186596 181495 173315 167141 167136 162688 156338 154169 153217 147197 147024 145870 144135 141519 137438 132813 130995 128527 123146 121643 118010 117031 111333 110733 109283 104939 104006 104995 101568 100983 95536.5 95261 94888.1 92746.9 92668.2 91531.1 88837.6 87329.9 86268.5 86149.9 84689.4 82914.5 82794.4 82755.8 82064.6 81950.8 80966.4 78990.5 78199.2 75398 80793.6 74896.9 74732.3 73795.1 72629 71020.4 94185.2 89960.6 69999.9 68744.4 68652.8 68539.5 64007.6 63791.5 62620 62483.7 61996.7 61053 60688.4 59887.4 58752.4 57203.2 56832.9 56415.2 56190.6 56088.1 55634.9 55607.5 53533.7 53443.3 53339.7 52776.8 52642.1 52639.2 52282.1 52026 51238.5 51084.5 49711.2 47643.3 47575.1 45257.2 45042.5 44330.5 43854.9 43851.8 81568.3 43823 43662.7 43480.5 43427.7 43063 46138.5 42285.9 41962.5 41760.2 41728.6 41713.6 41529.7 41369.7 41348.8 41211.1 40672.6 40551.2 39586.4 39144.9 38951.7 37888.2 37617.3 37585.8 37431.5 37426.2 36930.8 36214 36207.9 35731.8 34257.7 34219.3 34107.5 33931 37342 33829 33525 33284.4 33182 32975.9 32680.6 32579.3 32344.1 32308.4 32130.9 32114 37510.5 31965.5 31373.3 31120.4 31008.8 30948 30930.7 30906.1 30801.7 30693.9 30306.7 40610.2 30110.1 29744.2 29602.4 29440 29360.6 30985.6 28644 28577.5 28538 28472.2 28377 28284.4 53457.8 28140.2 27929.7 27764.5 27750.5 27470.1 27091.8 27075.6 26844.6 26741.9 26733.8 26481.8 26476.2 26453.1 26374.2 26359.4 26248.1 26163.2 26161.2 26041.6 25654.8 28075.6 25580.4 25371.2 25157.6 24854.1 24838.6 24819.9 24813.3 28436.3 24753.3 24721.6 24716.5 24660.8 24612.8 24545.5 24439.2 24426.2 24371.6 24307 24144.5 24113.8 24108.2 24053.1
